0,1,2,3,4,5,6,7,8,9,10,11,12,13,14,15,16,17,18,19,20,21,22,23,24,25,26,27,28,29,30,31,32,33,34,35,36,37,38,39,40,41,42,43,44,45,46,47,48,49,50,51,52,53,54,55,56,57,58,59,60,61,62,63,64,65,66,67,68,69,70,71,72,73,74,75,76,77,78,79,80,81,82,83,84,85,86,87,88,89,90,91,92,93,94,95,96,97,98,99,Target
-0.11756005,0.045050025,-0.13341464,0.030641694,-0.115353264,0.14912106,0.16562411,0.19379325,-0.069320686,-0.07906734,-0.17622839,0.12566753,0.030938776,0.18291296,-0.11459492,-0.1424173,0.0027513427,-0.20278169,-0.089010954,0.012658815,-0.10132379,0.09947956,-0.019262852,0.162538,0.24764562,-0.060531136,-0.17854807,0.06735192,-0.04122727,-0.12858742,-0.0528131,-0.15714207,-0.026791194,0.008325098,0.069628865,-0.048762824,0.16293582,-0.23032801,0.022154545,0.0753297,-0.008214785,-0.027874317,0.022689374,-0.1078413,0.03073996,-0.09611123,0.06339819,0.11044575,0.21354389,-0.07702064,-0.060867824,-0.28849858,0.004815196,-0.052889686,0.077069975,-0.10245316,-0.01273612,0.039542373,0.08853333,0.14858668,-0.04491215,-0.055507462,-0.18656322,0.18326119,0.07988974,0.032559045,0.08461088,0.022300744,-0.16103145,0.07462214,0.077039704,-0.08953798,0.06978927,-0.119910054,0.015420498,-0.048631575,0.06868086,0.031960003,-0.03571823,-0.1671942,0.042428818,-0.04270796,-0.13151501,0.105364576,-0.12572691,0.16194975,-0.12980883,-0.15721135,0.024798691,0.020934641,-0.04579463,0.035498086,0.105435915,-0.21165368,0.1620461,0.022811422,-0.036039557,0.06833035,-0.17091663,-0.10177463,0
-0.09009718,0.034198213,-0.10328722,0.018808896,-0.07664743,0.11321983,0.122883014,0.14187679,-0.05740213,-0.059411082,-0.12940963,0.092948906,0.023266895,0.13424599,-0.082218096,-0.10592143,0.0023762381,-0.15637513,-0.069164544,0.009967642,-0.07973068,0.077230826,-0.010351136,0.120304614,0.18898374,-0.047033604,-0.13477379,0.042332336,-0.033747558,-0.09630266,-0.042913377,-0.11503959,-0.030206352,0.011216515,0.056566704,-0.038790938,0.12269253,-0.17671022,0.014583493,0.054292712,-0.0029375404,-0.022654152,0.016580831,-0.082776636,0.02805156,-0.07518905,0.04354369,0.08242181,0.16077024,-0.06173329,-0.04022126,-0.21406531,0.008844993,-0.040652394,0.057689503,-0.06928143,-0.010715056,0.033036456,0.06343117,0.11221696,-0.029993622,-0.03571963,-0.14030255,0.14460494,0.057599176,0.026720589,0.06350374,0.016323453,-0.12291973,0.055332027,0.0576242,-0.07074969,0.058130827,-0.08716166,0.013154021,-0.035367656,0.058939323,0.019073553,-0.027588874,-0.12450116,0.035738017,-0.030025184,-0.09654316,0.075261205,-0.08965197,0.12219896,-0.10356165,-0.119908445,0.020631183,0.018197434,-0.028398758,0.024832498,0.0826791,-0.15687384,0.12448936,0.011945429,-0.030219473,0.043242496,-0.13012728,-0.074840955,1
-0.13623324,0.048269913,-0.14321367,0.03400145,-0.11552369,0.16341709,0.17609288,0.21452217,-0.075407565,-0.08524423,-0.18883556,0.13448991,0.033924244,0.20012236,-0.12533663,-0.16262828,0.00033495482,-0.22824419,-0.09779104,0.017160466,-0.11588514,0.1042724,-0.023834324,0.17602646,0.2706981,-0.07105826,-0.19688617,0.065737315,-0.050846234,-0.1455942,-0.061836544,-0.17198129,-0.035862196,0.013837553,0.07539083,-0.05422469,0.1805917,-0.2615594,0.028197259,0.08396242,-0.009481103,-0.031917688,0.029468404,-0.12541854,0.038882356,-0.11016738,0.06783407,0.11842498,0.23707902,-0.082136504,-0.06279529,-0.3146232,0.011150442,-0.057226498,0.07754608,-0.106500804,-0.011279884,0.047875773,0.08921667,0.16263317,-0.049293578,-0.05673781,-0.21210808,0.20153736,0.088220425,0.03755061,0.092978485,0.024276344,-0.17221646,0.077550165,0.0896968,-0.09619544,0.0797643,-0.13460363,0.01894487,-0.052603047,0.08182117,0.02573201,-0.045032036,-0.18444467,0.048195746,-0.048591033,-0.14024928,0.11844567,-0.1394815,0.18609881,-0.14337192,-0.1697679,0.027587688,0.028963244,-0.046409424,0.034782913,0.118629664,-0.22762115,0.17935781,0.0222765,-0.035563692,0.07347753,-0.19078307,-0.114693075,1
-0.12392599,0.046910346,-0.13643335,0.03475743,-0.12124786,0.14788868,0.16876501,0.20417586,-0.06954878,-0.08330704,-0.18092988,0.124679916,0.029201506,0.18601032,-0.118531294,-0.15210056,0.0018111404,-0.20623904,-0.09129452,0.0143749565,-0.10387849,0.09981313,-0.021237312,0.16601251,0.25592706,-0.059032083,-0.17392927,0.06922772,-0.048307423,-0.12952338,-0.057011165,-0.16131808,-0.027876107,0.01131033,0.07378364,-0.04524688,0.17340074,-0.23916568,0.020497471,0.08023439,-0.010457035,-0.026281232,0.021264752,-0.10986931,0.028987546,-0.10238623,0.069974035,0.1143832,0.22419049,-0.086256176,-0.064028054,-0.2976897,0.00059278053,-0.05556699,0.08082289,-0.10557384,-0.01512883,0.03928354,0.08595325,0.15201898,-0.045480963,-0.059224237,-0.19420518,0.1865284,0.083437085,0.034215886,0.087994836,0.020264871,-0.16006489,0.079577945,0.077681355,-0.093968414,0.06900337,-0.12431499,0.014879233,-0.052568827,0.068064325,0.035982385,-0.042930372,-0.17627853,0.041604687,-0.044357486,-0.12800802,0.11084484,-0.12625104,0.17077295,-0.13171759,-0.16366056,0.02591625,0.022573365,-0.0503371,0.03502625,0.10947751,-0.22053228,0.16479045,0.028665656,-0.037858095,0.07437106,-0.17488831,-0.10812028,1
-0.11133189,0.040323816,-0.12150518,0.029199775,-0.10223805,0.13560165,0.14871319,0.18018645,-0.070040196,-0.07630633,-0.1592931,0.1211158,0.030887535,0.16794603,-0.10699678,-0.13581225,-0.0013384076,-0.18865134,-0.08646349,0.014805706,-0.09618897,0.09117104,-0.014458451,0.14767352,0.22874631,-0.058263678,-0.16310443,0.056259945,-0.04431267,-0.118411556,-0.05025065,-0.146405,-0.030426012,0.0111144185,0.067288056,-0.048399154,0.14978562,-0.21812545,0.01783548,0.070746176,-0.004682727,-0.023274262,0.021966157,-0.10367084,0.030349823,-0.08743381,0.05945674,0.10355643,0.20163958,-0.074203536,-0.04971796,-0.26638582,0.0076261405,-0.045708075,0.06716421,-0.089973934,-0.012426396,0.041053694,0.07514132,0.13773397,-0.043102868,-0.048211616,-0.17774668,0.1687782,0.07238765,0.034015473,0.08080074,0.018138988,-0.14953022,0.06632796,0.072634794,-0.08390701,0.06539094,-0.11399496,0.017257353,-0.041655835,0.06373845,0.027110022,-0.03362858,-0.15147127,0.040028714,-0.042133734,-0.11764199,0.09923088,-0.11489474,0.1562499,-0.119356714,-0.1425868,0.026552808,0.023836765,-0.040728904,0.03437515,0.1011061,-0.19264022,0.14836293,0.018665005,-0.034644883,0.06405173,-0.1614196,-0.09739074,1
-0.11408758,0.042694584,-0.12203672,0.026796136,-0.109958254,0.14077513,0.15038875,0.1814527,-0.06579323,-0.07380727,-0.1616351,0.11628918,0.028869644,0.17356604,-0.10700867,-0.13047852,0.0014984962,-0.18872745,-0.08597265,0.01523306,-0.094933614,0.09243138,-0.017901631,0.15477358,0.22991419,-0.053928144,-0.16736229,0.06554965,-0.03857507,-0.123730324,-0.049717177,-0.14786838,-0.030767988,0.014453562,0.06984553,-0.043604575,0.15305224,-0.22014463,0.013476968,0.07016964,-0.009214146,-0.027489904,0.02246338,-0.1056424,0.029864803,-0.0906502,0.05910173,0.10259153,0.20468283,-0.07355867,-0.049426638,-0.275544,0.0077207386,-0.05029916,0.069937006,-0.09583044,-0.013142985,0.037232883,0.08231208,0.13840368,-0.03941085,-0.044725377,-0.18096554,0.17311117,0.07725005,0.03514471,0.078292,0.01568839,-0.1514636,0.068116106,0.07507114,-0.08239416,0.063751094,-0.11488918,0.014458483,-0.046933517,0.06391115,0.026292508,-0.029490108,-0.15408437,0.03997531,-0.04373517,-0.12202027,0.09620635,-0.1182966,0.15261586,-0.12142988,-0.14812998,0.022414181,0.02070167,-0.045248166,0.034305852,0.09514432,-0.19786361,0.15186968,0.01943561,-0.03379014,0.063513435,-0.15728343,-0.09653759,1
-0.15285546,0.005800724,-0.18440454,-0.012169211,-0.09311803,0.24275176,0.27912188,0.2762017,-0.12706983,-0.074777916,-0.2402952,0.19927715,0.036408957,0.23362404,-0.17476912,-0.19381158,-0.06584703,-0.3545086,-0.15842362,0.005492806,-0.14022778,0.16466771,0.0028943783,0.24813974,0.39395553,-0.060436722,-0.31235972,0.09221422,-0.04320684,-0.19831425,-0.10263192,-0.19708934,-0.10396187,0.043550175,0.15003926,-0.08644921,0.23101543,-0.37028208,0.0036524653,0.06434642,0.03448108,-0.08342932,-0.0021834585,-0.17640495,0.12280364,-0.11518629,0.060638595,0.14207546,0.32978484,-0.08840165,-0.015517132,-0.38173866,0.09071622,-0.08938747,0.09934595,-0.12748377,-0.006339091,0.07460149,0.12697995,0.23823988,-0.0123701915,-0.040129844,-0.23839793,0.309235,0.11011606,0.100723,0.08944647,0.021071106,-0.24460617,0.04884627,0.09982374,-0.1392429,0.15681547,-0.14526303,0.013781584,-0.089239866,0.1425386,-0.02155152,-0.019090315,-0.17968872,0.1221091,-0.086039305,-0.19848713,0.11986468,-0.184346,0.21611723,-0.21977969,-0.24277018,0.0035075112,0.008916074,0.008343819,0.05675569,0.13983262,-0.31002986,0.28076133,-0.05269537,-0.06646359,-0.0042243595,-0.2774462,-0.1255608,1
-0.124266416,0.043860063,-0.13521597,0.035480186,-0.110471934,0.15016747,0.16632836,0.19717813,-0.07184972,-0.08035188,-0.1742098,0.1266974,0.028750263,0.18508612,-0.11563599,-0.14659645,0.0020618506,-0.21070932,-0.08678778,0.016586019,-0.102562316,0.10003897,-0.021499448,0.16763686,0.2498863,-0.061432905,-0.17950602,0.06331915,-0.044789538,-0.13259473,-0.055248003,-0.1615059,-0.030484557,0.007888619,0.06786031,-0.053160157,0.1687074,-0.23595177,0.020226201,0.077331245,-0.008211292,-0.028277533,0.022433646,-0.11263873,0.032889206,-0.10028289,0.06545635,0.11420451,0.22235921,-0.08004142,-0.052634396,-0.28945956,0.010596126,-0.0518699,0.076386854,-0.104895346,-0.014089965,0.042133473,0.08752215,0.14973092,-0.04467155,-0.05180858,-0.19284096,0.18460996,0.07839738,0.03499868,0.08774627,0.019921398,-0.1629667,0.072600335,0.07861429,-0.090990916,0.07338771,-0.12589175,0.016961794,-0.049890295,0.07526337,0.029837767,-0.037922338,-0.17072244,0.044344917,-0.044938922,-0.13159367,0.1065155,-0.12848578,0.16951555,-0.13044602,-0.16330987,0.029985854,0.022704197,-0.044639748,0.03221536,0.109557964,-0.2148057,0.1650837,0.022878468,-0.037228942,0.07046667,-0.17539942,-0.102492005,0
-0.16812062,0.053365905,-0.18540768,0.034890596,-0.14309253,0.21215038,0.22511876,0.2642313,-0.10860477,-0.10259386,-0.24018,0.17438155,0.03820625,0.2412489,-0.16326477,-0.19131888,-0.009021617,-0.28575054,-0.12565073,0.01187108,-0.13269782,0.13775918,-0.019409822,0.22377355,0.3477008,-0.070187844,-0.24695349,0.09186485,-0.05785608,-0.16834724,-0.08237443,-0.21052867,-0.04647514,0.011995129,0.10473323,-0.06287897,0.22447844,-0.31697443,0.015656361,0.100548744,-0.0043948507,-0.040352356,0.025751213,-0.15634674,0.055482533,-0.1259789,0.08768213,0.14466132,0.30275208,-0.11087989,-0.06610334,-0.384524,0.019464873,-0.07423696,0.09628508,-0.1404031,-0.012981225,0.057854682,0.109662645,0.20198889,-0.05366912,-0.06690744,-0.25254425,0.26129827,0.106942534,0.046702046,0.118614055,0.028316325,-0.22112654,0.098214634,0.10265156,-0.13634942,0.09911874,-0.16506507,0.018745182,-0.07048658,0.097200595,0.025611116,-0.04488184,-0.21869563,0.06848123,-0.06836587,-0.17687045,0.14230686,-0.16860144,0.22681667,-0.17838602,-0.22443414,0.039110094,0.026793987,-0.052015763,0.0488895,0.14446011,-0.28861377,0.22365703,0.01932155,-0.054616954,0.07497465,-0.24156524,-0.12937228,1
-0.117810436,0.04654124,-0.13041726,0.029775133,-0.11246572,0.14036083,0.15778317,0.1859264,-0.068586014,-0.07861269,-0.17244577,0.11802645,0.026700465,0.17672256,-0.10981582,-0.1377522,0.0043471726,-0.19104034,-0.08467226,0.011674702,-0.09093841,0.0954235,-0.020251652,0.15637778,0.2347297,-0.058932148,-0.16709214,0.066971794,-0.04619866,-0.12454556,-0.052881185,-0.15191515,-0.026542552,0.011002089,0.07045552,-0.045472328,0.15804218,-0.21991904,0.016224971,0.07574632,-0.008658182,-0.023917241,0.024293246,-0.10383531,0.029310184,-0.09360438,0.06759795,0.104282126,0.20832272,-0.08064968,-0.058315493,-0.27869532,0.0019111832,-0.051827975,0.07416956,-0.09855084,-0.019774396,0.039688095,0.08180726,0.1388317,-0.043155942,-0.05105239,-0.18314539,0.17575206,0.07636784,0.03081268,0.08479636,0.01867324,-0.15242507,0.07160637,0.07640651,-0.089355014,0.067029946,-0.11810972,0.018704023,-0.048259374,0.06473162,0.030730454,-0.0359629,-0.16096216,0.03796232,-0.04161849,-0.12521915,0.10324441,-0.12095311,0.15803811,-0.12169985,-0.15311863,0.026137779,0.02126838,-0.048319913,0.032008983,0.10357258,-0.20628509,0.14880432,0.021769742,-0.036145076,0.07110614,-0.16010948,-0.097552925,1
-0.109493226,0.039708965,-0.112697676,0.023814198,-0.091758326,0.13735744,0.14414918,0.16641894,-0.07168642,-0.07038832,-0.15459174,0.11565489,0.029216653,0.1578016,-0.10476069,-0.12472947,-0.0049379086,-0.18596931,-0.08060781,0.011398073,-0.09123537,0.09471895,-0.016583733,0.14391783,0.2275936,-0.05033589,-0.1648368,0.05738804,-0.036425784,-0.11404008,-0.052290775,-0.13288915,-0.037251454,0.010409109,0.069098935,-0.052201867,0.14333922,-0.2066319,0.015834332,0.063720986,-0.004633208,-0.031520683,0.017241366,-0.09961638,0.036863282,-0.08074753,0.04900085,0.09457119,0.19635841,-0.06835761,-0.038379762,-0.25219208,0.012403383,-0.045154087,0.06724417,-0.09374076,-0.009847384,0.04173211,0.07789688,0.1371269,-0.028728563,-0.039433304,-0.16804835,0.16958022,0.06763257,0.03347438,0.0738177,0.01835886,-0.14251143,0.06180186,0.074839815,-0.08370401,0.0644768,-0.10863886,0.0178918,-0.043128088,0.06872786,0.018063592,-0.02812828,-0.14393727,0.048327878,-0.037310243,-0.116195336,0.0981476,-0.10697521,0.1476224,-0.12012468,-0.15111065,0.023621585,0.026435368,-0.03314883,0.032544136,0.09548398,-0.18708947,0.14172466,0.011646987,-0.035622515,0.048996806,-0.15323152,-0.08716729,1
-0.13015756,0.04668497,-0.13724664,0.02790745,-0.11005524,0.14887552,0.16770719,0.19770794,-0.081440166,-0.081609756,-0.17658843,0.1264251,0.031664126,0.18575206,-0.112372495,-0.1399833,-0.0027990392,-0.20819926,-0.090732925,0.0075277113,-0.10257444,0.096631154,-0.0104217045,0.16427256,0.25961372,-0.05665814,-0.17407219,0.063878454,-0.051949494,-0.1283323,-0.06491677,-0.15459117,-0.03621403,0.0111488905,0.076880485,-0.04531256,0.17124534,-0.23850146,0.011369423,0.07587181,0.0020047755,-0.02920171,0.023287626,-0.11290282,0.031063028,-0.09835362,0.07324238,0.11085541,0.22966251,-0.094724506,-0.0545303,-0.28759244,0.0051893853,-0.056999918,0.078318655,-0.10519782,-0.018951546,0.042135533,0.08413858,0.14702313,-0.03700804,-0.056016892,-0.19574945,0.1910967,0.08421711,0.033441138,0.0871737,0.016396463,-0.16154005,0.0741279,0.079777,-0.1067255,0.07098528,-0.123723686,0.012426126,-0.054035746,0.070350565,0.022739459,-0.03812345,-0.16896898,0.04704254,-0.04345858,-0.13323614,0.1109892,-0.120380476,0.17124891,-0.13482662,-0.17258292,0.031153727,0.020825857,-0.038143553,0.03381618,0.11214314,-0.21345791,0.16329595,0.020780843,-0.0360011,0.06302756,-0.17414805,-0.10004018,1
-0.11593046,0.048106328,-0.13006929,0.034517594,-0.11043406,0.14504589,0.15863636,0.1878298,-0.0647616,-0.07701774,-0.17131056,0.120214134,0.027036836,0.17644705,-0.110332035,-0.13980532,0.002918599,-0.1950351,-0.0825827,0.019289656,-0.09539569,0.097512506,-0.019112244,0.16096546,0.23960115,-0.056870896,-0.17437772,0.06699997,-0.04352978,-0.12955879,-0.04929241,-0.1524704,-0.028385306,0.010471612,0.068024926,-0.04418089,0.15887083,-0.22584347,0.022565326,0.074016005,-0.010810847,-0.023411749,0.02344481,-0.1051313,0.02574198,-0.09435447,0.059551384,0.10667529,0.21022804,-0.080071546,-0.058300424,-0.28461573,0.00429634,-0.05150445,0.07493336,-0.099131115,-0.014588278,0.040134933,0.08414966,0.14532296,-0.042699803,-0.048869222,-0.1853382,0.18000583,0.07774184,0.034661204,0.08707181,0.019366855,-0.15542285,0.07100759,0.08124634,-0.085206956,0.066352345,-0.11996401,0.01594328,-0.045344677,0.067465216,0.032820612,-0.03517087,-0.16517942,0.040903077,-0.041512266,-0.12288333,0.10336298,-0.12498494,0.16176276,-0.1267339,-0.152749,0.02299322,0.02351662,-0.048132006,0.032765236,0.1035456,-0.20299421,0.15335624,0.025583796,-0.037812922,0.070801005,-0.16697598,-0.09764967,1
-0.1235145,0.04781612,-0.1336827,0.028066622,-0.11336447,0.14958146,0.16862077,0.19796889,-0.07152201,-0.07983978,-0.17794077,0.12520438,0.028378155,0.18776049,-0.11515338,-0.14792353,0.0014706523,-0.20667483,-0.087844506,0.015516347,-0.10201287,0.10066896,-0.018723207,0.16664612,0.2482605,-0.062958024,-0.17811659,0.06754715,-0.046005547,-0.13036327,-0.059734866,-0.16010171,-0.028150432,0.012572876,0.07316362,-0.049658887,0.1654501,-0.2346657,0.023647996,0.0776357,-0.01025969,-0.029599769,0.022040626,-0.11182507,0.03187251,-0.09906799,0.06544772,0.11377296,0.2162624,-0.080949694,-0.05827021,-0.29369184,0.007010295,-0.056582086,0.07678959,-0.10219075,-0.015956659,0.041917026,0.0915602,0.14698705,-0.0434765,-0.052130923,-0.18970679,0.18821275,0.08270797,0.035112694,0.08872598,0.019729605,-0.16331433,0.07194942,0.07824291,-0.092417695,0.07302573,-0.12625581,0.01750461,-0.04938536,0.07250851,0.028720161,-0.038222235,-0.17191616,0.04544047,-0.04485642,-0.1351556,0.106488705,-0.12797624,0.16739024,-0.13180996,-0.15925057,0.02524094,0.021972213,-0.046777513,0.035166908,0.106993966,-0.2141139,0.16324867,0.021606805,-0.03868054,0.07160118,-0.17421511,-0.10402866,1
-0.122681394,0.04811783,-0.138112,0.029756479,-0.11635617,0.14704227,0.16820163,0.20150167,-0.072571345,-0.07947679,-0.18003654,0.12799196,0.03232974,0.18828112,-0.11639546,-0.1475608,0.0037730734,-0.20935725,-0.088577524,0.013305002,-0.10344534,0.10121189,-0.01814597,0.1661465,0.25496015,-0.061547834,-0.17970891,0.069631256,-0.047500327,-0.12941755,-0.0583833,-0.15882769,-0.029218452,0.012333842,0.07151942,-0.047484916,0.17002147,-0.23656075,0.019346973,0.07525546,-0.006164858,-0.027953833,0.021159597,-0.11221772,0.030590164,-0.09782645,0.064549856,0.11397297,0.22288196,-0.08473708,-0.059820607,-0.295671,0.0058481265,-0.055886343,0.07753045,-0.10400489,-0.015065006,0.040098306,0.089530796,0.14957565,-0.04220786,-0.05520696,-0.19284536,0.1912196,0.08160764,0.03377895,0.08843899,0.019301975,-0.15941267,0.07747657,0.08197578,-0.095654935,0.07266446,-0.12333792,0.013607686,-0.051855363,0.07133433,0.03177512,-0.038470164,-0.17161478,0.0441408,-0.04479915,-0.13155484,0.106332056,-0.1275009,0.16926223,-0.1293615,-0.16280013,0.027533729,0.02021509,-0.047150116,0.03861465,0.106514305,-0.2150461,0.16206448,0.023153953,-0.03743972,0.07023236,-0.1762496,-0.105382666,1
-0.14587586,0.054613266,-0.1594232,0.038019,-0.13179839,0.17182472,0.1918176,0.23136552,-0.08668821,-0.089512244,-0.20652567,0.14479426,0.03385748,0.2148949,-0.1343994,-0.16887383,-0.0020130535,-0.23960271,-0.10660875,0.013282872,-0.119489156,0.11557703,-0.01680706,0.19252929,0.29620773,-0.067903526,-0.20103075,0.076621756,-0.05976513,-0.14807354,-0.07045439,-0.1816511,-0.035006702,0.014627295,0.086243324,-0.051044922,0.19896923,-0.27760574,0.016295394,0.0901164,-0.009026326,-0.03469933,0.026673326,-0.13128568,0.036395676,-0.11624616,0.08081467,0.12874234,0.26284268,-0.10587486,-0.06755166,-0.33602694,0.005955122,-0.06498739,0.08821888,-0.121939465,-0.017233636,0.046406887,0.10105156,0.17040356,-0.048146106,-0.06639362,-0.22688411,0.22247338,0.09914986,0.04216757,0.101384796,0.019912302,-0.18858954,0.08563788,0.09048368,-0.12024262,0.07927864,-0.14355111,0.016925475,-0.06219724,0.079879716,0.0372748,-0.049210064,-0.19698636,0.052214567,-0.05144769,-0.1519901,0.12863578,-0.14730628,0.19544305,-0.15549764,-0.19012477,0.031771637,0.021952616,-0.049107406,0.038173344,0.12664743,-0.24941084,0.1894236,0.027486455,-0.04330935,0.07743078,-0.20473519,-0.118072346,1
-0.12258149,0.050197087,-0.14354163,0.032359608,-0.12338098,0.15993491,0.17977795,0.20542967,-0.07099027,-0.08550675,-0.18970016,0.1279245,0.035642914,0.2004404,-0.122620195,-0.15724266,0.0051656393,-0.21252543,-0.09467979,0.015836798,-0.110547416,0.10981588,-0.023165232,0.18103923,0.26718166,-0.06226287,-0.19464803,0.07586995,-0.04924057,-0.1427228,-0.05226823,-0.16924813,-0.025789477,0.012484759,0.079345584,-0.047590718,0.1748305,-0.25480634,0.021563416,0.08196378,-0.0089920135,-0.026935413,0.024544172,-0.11761895,0.034543604,-0.10004807,0.06860761,0.117541745,0.2314669,-0.08241382,-0.066559136,-0.32127953,-0.000974335,-0.06066545,0.0846223,-0.10863935,-0.01869024,0.04633318,0.09532255,0.16289955,-0.046990465,-0.05099731,-0.20613363,0.19614163,0.08388537,0.034301184,0.09208227,0.02568748,-0.17091891,0.07734695,0.08326326,-0.095341966,0.077345975,-0.12905054,0.019787848,-0.048108455,0.07489479,0.041207757,-0.040983677,-0.18012276,0.04394929,-0.046195164,-0.13744654,0.10798397,-0.13029398,0.17153206,-0.1415245,-0.16849475,0.021586612,0.023952067,-0.05361542,0.036007978,0.10948672,-0.23043522,0.17025773,0.029958194,-0.038592186,0.0778744,-0.18301867,-0.11529579,1
-0.13325936,0.022357306,-0.15883853,0.0065658796,-0.09553513,0.20033218,0.22512859,0.23252922,-0.10295658,-0.07118845,-0.20822872,0.16520323,0.03318087,0.20052887,-0.14335968,-0.16274078,-0.0382975,-0.28698942,-0.12399359,0.007721133,-0.1157181,0.13514328,-0.0043183994,0.20651048,0.32234457,-0.05488136,-0.24938178,0.08319882,-0.038359106,-0.16046293,-0.08058348,-0.17253028,-0.07076537,0.028146442,0.11870331,-0.068125695,0.19692115,-0.30028388,0.009910221,0.06799885,0.017329194,-0.05999777,0.0070342543,-0.14184432,0.08399177,-0.10266927,0.06080449,0.12176449,0.2711674,-0.07936339,-0.024411285,-0.33025938,0.058213763,-0.07030424,0.08294703,-0.115992986,-0.008362791,0.055549763,0.10826889,0.19349429,-0.021460878,-0.04081913,-0.20473324,0.2501322,0.09097212,0.0725521,0.08350667,0.021198792,-0.19901648,0.053202722,0.082985945,-0.11628546,0.11828782,-0.12909128,0.016133642,-0.06793832,0.109007925,0.0002848321,-0.019892575,-0.16665557,0.08768011,-0.06470778,-0.16255541,0.10400141,-0.15250142,0.18392849,-0.17651337,-0.20349099,0.010970816,0.011204594,-0.013172122,0.047233272,0.11979963,-0.25868183,0.2228481,-0.021939248,-0.052153807,0.021520894,-0.22825186,-0.10898475,1
-0.13010593,0.049015507,-0.14516844,0.025529549,-0.117109425,0.16775776,0.17772393,0.20969857,-0.07861092,-0.08367688,-0.19425523,0.14019871,0.033927854,0.19884883,-0.1257173,-0.15525948,-0.0032997716,-0.22377701,-0.10138941,0.022757238,-0.11755221,0.11038571,-0.014214712,0.17991807,0.2741195,-0.06489998,-0.20337553,0.07906691,-0.05174004,-0.14820991,-0.05256925,-0.16481817,-0.048258245,0.014551778,0.082508534,-0.054549307,0.18379164,-0.2615098,0.026887974,0.0841189,-0.012508535,-0.029151862,0.027625067,-0.12338712,0.034775328,-0.09330239,0.05777215,0.11970079,0.2382075,-0.081897736,-0.06414896,-0.31948578,0.010308972,-0.05737871,0.08419301,-0.1113796,-0.010814925,0.054146737,0.091201745,0.1653657,-0.042056058,-0.049604844,-0.20999466,0.2067799,0.083951615,0.035534915,0.09673166,0.02025591,-0.1835187,0.068068415,0.08651766,-0.09525558,0.07923484,-0.12953694,0.025214165,-0.054299925,0.07964164,0.03249143,-0.037242122,-0.18352754,0.05267578,-0.052929193,-0.14119133,0.114401914,-0.13908531,0.18006654,-0.14413655,-0.17289984,0.025410526,0.024420507,-0.042753085,0.039074745,0.121813715,-0.22865176,0.17014568,0.020403337,-0.041147754,0.06720193,-0.18427104,-0.12007473,0
-0.15960951,0.063937016,-0.18290001,0.042449698,-0.14410788,0.19903207,0.21798831,0.26165298,-0.09476879,-0.10762176,-0.23602761,0.16908905,0.038110625,0.23963653,-0.15562305,-0.1872281,0.0013357484,-0.27416283,-0.12048728,0.019754715,-0.1351172,0.13343173,-0.020445287,0.22178076,0.33583385,-0.07724634,-0.23436004,0.08876466,-0.06331838,-0.1720537,-0.079269,-0.21013251,-0.03799155,0.012531564,0.095357046,-0.06311696,0.22303158,-0.31069386,0.02170045,0.09921225,-0.008362915,-0.037156172,0.027731378,-0.14662267,0.04044145,-0.12922277,0.087398395,0.14887759,0.29802507,-0.11106354,-0.07023349,-0.38318956,0.008822616,-0.07564506,0.09814746,-0.13417122,-0.02042662,0.057910528,0.11436539,0.19503462,-0.051061016,-0.0702341,-0.2550558,0.24906665,0.10453002,0.046858475,0.11587577,0.026746504,-0.21763265,0.09967051,0.10319569,-0.12413149,0.09484682,-0.1628909,0.022291198,-0.06378713,0.09387506,0.039511826,-0.05052626,-0.22416799,0.05933867,-0.0586829,-0.17567869,0.14416651,-0.1650534,0.22045639,-0.17617731,-0.21281865,0.03516572,0.031559743,-0.059063036,0.044757716,0.14259522,-0.28033292,0.2156677,0.03009654,-0.055260822,0.08816008,-0.2308588,-0.13094102,1
-0.10743578,0.04424553,-0.11504391,0.024704164,-0.09570082,0.12855583,0.14238748,0.16710716,-0.062244926,-0.06786052,-0.1530478,0.10978259,0.026381077,0.15949614,-0.09291106,-0.12358877,-0.0018977163,-0.1778379,-0.07563741,0.010820331,-0.091457166,0.08486314,-0.015307859,0.14240989,0.215297,-0.054622874,-0.151603,0.058984537,-0.04315783,-0.109342314,-0.051580507,-0.13341448,-0.027093189,0.011217232,0.0630024,-0.041797407,0.14447674,-0.2045745,0.015572651,0.06390383,-0.0064441813,-0.026569327,0.02006854,-0.09642427,0.02749303,-0.08188213,0.05406355,0.09444992,0.18847713,-0.07098325,-0.047328107,-0.25020573,0.0037215943,-0.047431372,0.06629094,-0.09256624,-0.015906038,0.03269305,0.076015145,0.12921195,-0.034766372,-0.04427945,-0.16592605,0.16392855,0.07159964,0.031891655,0.07402774,0.016676942,-0.13927932,0.06278109,0.06913891,-0.08107974,0.058957677,-0.107767835,0.015026821,-0.04493333,0.062102932,0.024243591,-0.032833554,-0.14611979,0.037706017,-0.037640747,-0.114552334,0.092931695,-0.10957168,0.14509702,-0.11293362,-0.1366222,0.02375933,0.016929239,-0.037280794,0.028475769,0.09142365,-0.18394041,0.13872437,0.019117892,-0.034361877,0.059994143,-0.14888525,-0.0891153,1
-0.15028787,0.053309146,-0.16957782,0.03404317,-0.12879117,0.18347144,0.20747772,0.24378838,-0.096188314,-0.09340806,-0.21499985,0.1578958,0.033918623,0.2253326,-0.14770418,-0.17938633,-0.0013591464,-0.2612655,-0.11423104,0.018447397,-0.1261902,0.12038777,-0.01688269,0.20521511,0.31548607,-0.07409524,-0.21842504,0.07642749,-0.05950355,-0.16621813,-0.07252859,-0.1887111,-0.04192622,0.015155744,0.08946659,-0.06083869,0.20704411,-0.29190448,0.01879321,0.09134486,-0.0064374045,-0.038434945,0.02508715,-0.1422403,0.041951925,-0.124722764,0.078993276,0.13707733,0.27726528,-0.105487235,-0.06297909,-0.35151407,0.017111756,-0.0669751,0.090740345,-0.12852065,-0.021221222,0.05015336,0.1088087,0.18846954,-0.043568935,-0.066281706,-0.23881307,0.23617505,0.10450364,0.044905327,0.1055176,0.025618164,-0.20058933,0.09213934,0.09396403,-0.114130706,0.09591431,-0.1513343,0.020155782,-0.061871782,0.09575135,0.032806445,-0.045778226,-0.20755269,0.05646181,-0.058101654,-0.16395074,0.13528204,-0.1576646,0.20697007,-0.16374531,-0.20123148,0.035854563,0.027994806,-0.04902263,0.042829525,0.1347005,-0.26228845,0.20515414,0.023361176,-0.047171377,0.078415714,-0.2194259,-0.1264302,1
-0.13085683,0.050838444,-0.14411832,0.03255399,-0.12305683,0.16116862,0.17720993,0.2131211,-0.077916116,-0.085594065,-0.19044843,0.13431542,0.03393087,0.19779131,-0.12296299,-0.15668644,0.00063185045,-0.22129546,-0.09449023,0.015505312,-0.11103392,0.10594672,-0.01907205,0.17930621,0.26678333,-0.06446984,-0.1942413,0.074442975,-0.050028585,-0.14042373,-0.061933085,-0.17030855,-0.03246063,0.014357532,0.07908721,-0.05092351,0.1781652,-0.25332028,0.02141727,0.08145164,-0.009805526,-0.028572,0.021878567,-0.12007776,0.03895208,-0.10365276,0.067811236,0.11803426,0.23573081,-0.09073703,-0.06213756,-0.3115606,0.0072133485,-0.06074636,0.08042997,-0.11201596,-0.020519394,0.044507883,0.09400542,0.15906829,-0.043450598,-0.056934405,-0.20463534,0.20234594,0.08478806,0.03879435,0.094850555,0.017964816,-0.17282556,0.07862878,0.08188358,-0.1022101,0.07709071,-0.1306356,0.019312339,-0.0544432,0.074989825,0.031943545,-0.0406471,-0.17902224,0.046167877,-0.049003057,-0.14205953,0.114254326,-0.13785194,0.1807431,-0.14149837,-0.17289618,0.026829818,0.022936247,-0.049160294,0.039100118,0.1154936,-0.2314772,0.17498526,0.025043253,-0.039868686,0.072696246,-0.18519913,-0.11078474,1
-0.15636228,0.08665204,-0.19971076,0.04391008,-0.20893405,0.24617961,0.27220783,0.29044697,-0.100885674,-0.14567985,-0.31752685,0.1538949,0.0673751,0.30308598,-0.2001005,-0.22947392,0.0018426888,-0.29119125,-0.15597399,0.023213562,-0.16759938,0.16895247,-0.05026287,0.2675725,0.41034564,-0.09248409,-0.33016443,0.100807354,-0.057579987,-0.24028842,-0.04462462,-0.24617139,-0.03834437,0.013099605,0.10653833,-0.10593589,0.25519928,-0.36898515,0.032506153,0.14170249,-0.038367946,-0.048883706,0.030336007,-0.1594406,0.015699072,-0.1560191,0.09679373,0.17427814,0.32359523,-0.08821349,-0.12300118,-0.4829942,-0.007937444,-0.096518494,0.15328826,-0.16681792,0.0049984343,0.08836987,0.15071173,0.2292408,-0.09608173,-0.072014086,-0.3034382,0.28749272,0.09296361,0.03253069,0.12661347,0.050912064,-0.24203812,0.123769104,0.12839095,-0.13960879,0.11434249,-0.17315587,0.038014427,-0.09451862,0.13498327,0.09258335,-0.059956584,-0.27648845,0.06003507,-0.062451784,-0.18440014,0.17680259,-0.18289049,0.23383814,-0.22719991,-0.27206826,-0.0114620775,0.059668303,-0.05864766,0.046466276,0.17320873,-0.3264274,0.22849165,0.05892771,-0.04275813,0.12178453,-0.26457196,-0.20718749,1
-0.114675194,0.0429222,-0.12906061,0.025865717,-0.10727613,0.1448283,0.16156572,0.18916656,-0.06720929,-0.07310616,-0.16953558,0.11839203,0.027149744,0.17898043,-0.11037709,-0.14046702,-0.0013907311,-0.19625603,-0.08643386,0.014464642,-0.09354845,0.09649254,-0.01596396,0.15668972,0.24143885,-0.057427224,-0.17246778,0.06590243,-0.04197286,-0.12795955,-0.05478014,-0.15143944,-0.029319946,0.015153633,0.07252272,-0.048631743,0.15944107,-0.2285777,0.016679842,0.068928584,-0.0066535193,-0.027882818,0.018222336,-0.10559009,0.027845535,-0.09090734,0.060849957,0.10827641,0.20863849,-0.07400514,-0.051784534,-0.2789013,0.008597349,-0.05394633,0.07332092,-0.098599516,-0.01597601,0.037029486,0.08244189,0.14361905,-0.038381193,-0.048335664,-0.18254529,0.18167965,0.07530627,0.035278656,0.08464597,0.016537417,-0.15384112,0.06902354,0.0758199,-0.08496434,0.068747625,-0.117901,0.020121075,-0.047043003,0.07031275,0.029414296,-0.031996675,-0.15910204,0.045249783,-0.041966464,-0.12867095,0.09775005,-0.12450454,0.15941647,-0.12414634,-0.15224114,0.023252575,0.022092443,-0.045755073,0.034015138,0.10226272,-0.20476998,0.15294589,0.017888006,-0.037367728,0.066017896,-0.16647284,-0.098596446,0
-0.11187604,0.0240079,-0.12759636,0.012430167,-0.085862786,0.1484957,0.17185119,0.18902151,-0.07692219,-0.064668015,-0.1646788,0.12804392,0.027946437,0.16730031,-0.11462709,-0.13252619,-0.018742047,-0.2159955,-0.09599196,0.011436054,-0.095212474,0.10312981,-0.008154098,0.16304496,0.25426066,-0.050823297,-0.19050434,0.06064343,-0.03671225,-0.12889177,-0.05792812,-0.14239971,-0.049292896,0.021877516,0.08645437,-0.05010124,0.15863787,-0.23547974,0.007897099,0.05658404,0.005248607,-0.040560495,0.010851325,-0.11030044,0.0570165,-0.085799456,0.053743362,0.10336513,0.21321301,-0.06673899,-0.031193247,-0.27243975,0.0325294,-0.056580007,0.06926992,-0.09210941,-0.010094096,0.04327874,0.08604882,0.15525772,-0.02572852,-0.040444,-0.17449103,0.19063905,0.07444402,0.047733825,0.07316528,0.015793363,-0.15876882,0.054399393,0.07154807,-0.09007466,0.08994448,-0.10765888,0.014271331,-0.05132813,0.08343922,0.0100115985,-0.023012543,-0.14216986,0.06093135,-0.049128097,-0.12956946,0.09391253,-0.12239078,0.15072194,-0.13688423,-0.16008444,0.014375044,0.014071522,-0.016612347,0.03517851,0.09613585,-0.20562741,0.16950504,-0.00500316,-0.03926041,0.03286384,-0.17683218,-0.093453355,1
-0.11222837,0.036403444,-0.12585187,0.02675435,-0.106294915,0.14559337,0.16139449,0.185585,-0.06456672,-0.07269108,-0.16993596,0.11759319,0.029487235,0.17319372,-0.1113803,-0.13740806,-0.0010747885,-0.196339,-0.08800379,0.011047648,-0.094097055,0.098052144,-0.018640934,0.1585172,0.23919077,-0.057431333,-0.17672661,0.06677777,-0.03870267,-0.12883322,-0.051327873,-0.14532962,-0.031136092,0.011818151,0.06954741,-0.047315307,0.15496191,-0.2250793,0.018438743,0.06952416,-0.004869378,-0.03264979,0.018452693,-0.106503144,0.03750456,-0.09204994,0.059654903,0.10579886,0.20581321,-0.06972906,-0.053433966,-0.2766335,0.013047549,-0.050207138,0.07092641,-0.09659027,-0.012748779,0.04308217,0.0820915,0.14313005,-0.04052369,-0.04979992,-0.1793891,0.17972708,0.07761601,0.037780482,0.080647565,0.019975867,-0.1532012,0.065562196,0.072558664,-0.08798574,0.07093533,-0.11402256,0.016194737,-0.047720592,0.06733694,0.024680506,-0.031163199,-0.15497373,0.047009427,-0.04422738,-0.124203615,0.09917159,-0.12026118,0.15434143,-0.12496479,-0.15434477,0.016148256,0.020485323,-0.038940877,0.03500301,0.09673141,-0.20231675,0.15897787,0.016565232,-0.037035372,0.06118049,-0.16347922,-0.09604796,1
-0.12362754,0.051085703,-0.13454115,0.03595255,-0.11642915,0.15251341,0.16640311,0.19788674,-0.06905444,-0.083071575,-0.18129742,0.12551965,0.027968634,0.18626454,-0.12051531,-0.14750625,0.0053224117,-0.20648845,-0.09245006,0.01762435,-0.105361365,0.102268696,-0.023079025,0.1672658,0.25113398,-0.06232624,-0.18243954,0.06954106,-0.04573337,-0.13273306,-0.055584587,-0.16227275,-0.02852709,0.013483482,0.073951535,-0.048588358,0.16880026,-0.24140342,0.019763108,0.078269586,-0.010761014,-0.027047437,0.022834616,-0.11451886,0.033829834,-0.10072024,0.06474392,0.11426743,0.22115031,-0.081094064,-0.05824504,-0.29787362,0.0062986137,-0.055778135,0.07730988,-0.10594453,-0.018471818,0.043386262,0.089688145,0.15350506,-0.043887936,-0.05183986,-0.195421,0.18963344,0.083381124,0.036512926,0.0906523,0.019701358,-0.16579272,0.07634929,0.081814386,-0.08994709,0.07152813,-0.124294996,0.019311452,-0.052386157,0.070681855,0.03097653,-0.036038443,-0.17339014,0.043583993,-0.0435252,-0.13326582,0.10978673,-0.12955928,0.16747849,-0.13349052,-0.1618935,0.027402982,0.022971157,-0.050011635,0.033405628,0.10710039,-0.21536243,0.16298471,0.025915554,-0.037447978,0.07439148,-0.1770476,-0.106115654,1
-0.18633723,0.030644262,-0.22297218,0.0062720305,-0.13493873,0.27980947,0.3228974,0.33184722,-0.141594,-0.101663716,-0.29010728,0.22969332,0.043667167,0.2877472,-0.20258649,-0.231309,-0.049127985,-0.39649132,-0.17299919,0.010146487,-0.16543053,0.19104254,-0.0057691536,0.2898766,0.45306858,-0.08040418,-0.34875566,0.11513125,-0.05893323,-0.23100412,-0.1149214,-0.24334812,-0.10063416,0.043602206,0.16126773,-0.09476932,0.27622008,-0.42355672,0.010500632,0.09603777,0.026511926,-0.08405921,0.009592552,-0.20247005,0.11462072,-0.1465154,0.08938632,0.17348243,0.38662186,-0.122647,-0.042247575,-0.46760705,0.07685973,-0.10497787,0.121949464,-0.16185643,-0.016665844,0.07990629,0.15264109,0.27152374,-0.031453237,-0.06502893,-0.29337984,0.3537684,0.13069226,0.10194612,0.11786702,0.027955184,-0.28932685,0.08057977,0.12038907,-0.16517052,0.1667155,-0.1842223,0.020239865,-0.094728954,0.15513763,0.0030894596,-0.033482403,-0.2394318,0.120933294,-0.088068955,-0.22922313,0.15131514,-0.2172785,0.26152444,-0.24768984,-0.28285655,0.018862477,0.018387603,-0.023227334,0.0654052,0.17106779,-0.3653799,0.31493992,-0.029633239,-0.07526812,0.035397876,-0.31828678,-0.1544677,1
-0.12900792,0.052639525,-0.14137387,0.03401151,-0.11970401,0.15659598,0.17447908,0.20820129,-0.07536905,-0.08274865,-0.18569429,0.1331187,0.029764595,0.19302474,-0.11902789,-0.15175715,-0.0004999508,-0.21449816,-0.09351892,0.016421106,-0.10827538,0.104584396,-0.018741624,0.17269035,0.26357692,-0.064180814,-0.1842172,0.072275914,-0.048611466,-0.13591486,-0.06247543,-0.16503014,-0.030606784,0.011924767,0.07664027,-0.04759058,0.17786686,-0.2489894,0.02132906,0.08214278,-0.009217017,-0.031229852,0.024994351,-0.117016084,0.032041248,-0.10034791,0.06736928,0.11615028,0.2337475,-0.091788776,-0.062224735,-0.30761525,0.0060768723,-0.058231656,0.078874096,-0.10890972,-0.017339205,0.039965488,0.09255487,0.15664293,-0.04529332,-0.05653205,-0.20352085,0.19513474,0.08720898,0.036417976,0.094388545,0.02048452,-0.17208272,0.07743994,0.08090552,-0.10220922,0.0735281,-0.12798217,0.016724871,-0.05097027,0.072547056,0.03151961,-0.03789567,-0.18004298,0.0458273,-0.044175643,-0.13702466,0.1107628,-0.13350423,0.17734183,-0.13640969,-0.16761214,0.030150943,0.020638222,-0.047964815,0.035198547,0.11285012,-0.22532378,0.1709366,0.026709773,-0.03824856,0.07330291,-0.18267615,-0.10695387,1
-0.119464196,0.044690244,-0.13329074,0.031128477,-0.110340536,0.14881551,0.16718054,0.19424698,-0.06948824,-0.07586084,-0.17740756,0.12506524,0.031302292,0.17929116,-0.112035856,-0.14198689,-0.004384224,-0.20434205,-0.08916651,0.011811546,-0.09936435,0.10144731,-0.0146687385,0.16417043,0.25239483,-0.057659857,-0.17576882,0.064533666,-0.047461018,-0.12834586,-0.059563734,-0.1575543,-0.03621716,0.009144982,0.073935166,-0.05013212,0.16403112,-0.23180482,0.014695224,0.07336763,-0.007951512,-0.031082833,0.021496173,-0.1113558,0.0320683,-0.08898633,0.06690981,0.10607207,0.21937568,-0.08587332,-0.053382237,-0.2847822,0.007290694,-0.051784724,0.07231984,-0.104736604,-0.015860211,0.041336186,0.08443337,0.14505829,-0.036427148,-0.05180801,-0.18374273,0.19039293,0.080100365,0.034718663,0.084876165,0.014371256,-0.1577109,0.07103747,0.073412456,-0.10038771,0.070780985,-0.12046951,0.015939359,-0.04922807,0.075290166,0.027122656,-0.034092426,-0.16220176,0.04493626,-0.046766,-0.1246293,0.10432398,-0.12145307,0.16406372,-0.13112633,-0.16177745,0.02557649,0.021657202,-0.039843537,0.036341272,0.10680376,-0.20828095,0.16026023,0.018181922,-0.036563523,0.06039999,-0.17299159,-0.09879629,1
-0.15231116,0.0573477,-0.16433734,0.03737352,-0.13420893,0.18197727,0.20402025,0.24503222,-0.08841941,-0.09650589,-0.21526906,0.15854481,0.038663875,0.22673923,-0.14266476,-0.17929542,0.00028987275,-0.25794527,-0.11296849,0.018694554,-0.12739153,0.1234196,-0.023528643,0.20355482,0.30998906,-0.077928506,-0.22137897,0.07898277,-0.059622914,-0.16018143,-0.07385726,-0.19625592,-0.03913026,0.012013931,0.087120935,-0.05894664,0.20526871,-0.291699,0.021295525,0.093862034,-0.0074852803,-0.035653617,0.02581986,-0.13924341,0.0449224,-0.123052716,0.08256142,0.13590997,0.27152005,-0.10262777,-0.06884743,-0.35729864,0.008365457,-0.066122614,0.092253774,-0.1259358,-0.019082703,0.05083287,0.10820862,0.1849044,-0.049831152,-0.06547692,-0.2375948,0.23108503,0.10229436,0.040472504,0.10807173,0.027394326,-0.20131932,0.089161076,0.0964582,-0.11774047,0.091587335,-0.14935401,0.020544594,-0.061173476,0.09124687,0.03268847,-0.048997726,-0.20684767,0.055067185,-0.054636806,-0.1614883,0.13190341,-0.15781714,0.20781189,-0.16184646,-0.19822559,0.03536632,0.028121104,-0.052391164,0.040967204,0.13229407,-0.26186582,0.1981559,0.024527539,-0.045166526,0.083633654,-0.2157514,-0.12651503,1
-0.1027502,0.040141214,-0.10782281,0.025332442,-0.09317202,0.12482425,0.1371398,0.15974325,-0.055855673,-0.0653899,-0.14721814,0.10437647,0.027833978,0.15438826,-0.0960241,-0.11968233,0.0057075317,-0.17346188,-0.07290387,0.012413575,-0.0860289,0.08564127,-0.014231833,0.13855147,0.20853554,-0.045540515,-0.14960468,0.060986444,-0.036493205,-0.10759272,-0.04344876,-0.12917882,-0.028858028,0.0082172565,0.06290445,-0.0437976,0.13644983,-0.19735374,0.017770397,0.05986913,-0.012080775,-0.024437156,0.018021569,-0.093723826,0.024552945,-0.07655837,0.051536564,0.09231451,0.18143755,-0.06524356,-0.044567153,-0.24560434,0.0047007916,-0.04498235,0.06317024,-0.0837863,-0.011105274,0.035859592,0.07258058,0.122804865,-0.036201507,-0.04688561,-0.15798163,0.15463158,0.06597734,0.026841626,0.07009132,0.020620786,-0.13231881,0.056860916,0.067703575,-0.0753465,0.06059547,-0.10231633,0.015974833,-0.042220313,0.05644591,0.025565475,-0.03117701,-0.13937365,0.035044834,-0.040228408,-0.109059066,0.08905964,-0.10599563,0.13583833,-0.10821244,-0.13584831,0.020070791,0.017732821,-0.038683563,0.029116206,0.08862366,-0.17435071,0.13201575,0.01829691,-0.03161071,0.05792875,-0.1406659,-0.09004351,1
-0.13900726,-0.020831516,-0.18139167,-0.037425943,-0.06803237,0.25364012,0.30328557,0.27506256,-0.13482139,-0.054280095,-0.23530199,0.20455445,0.034069594,0.21897857,-0.17956762,-0.1834327,-0.092487894,-0.37865388,-0.16659003,-0.0024697327,-0.12798525,0.17539798,0.013306511,0.25219592,0.40354905,-0.04120593,-0.3369215,0.094306365,-0.033018343,-0.19922253,-0.10932509,-0.18387464,-0.12523435,0.05685012,0.17238916,-0.089398466,0.22350726,-0.37805772,-0.010934646,0.044796754,0.053271007,-0.09898495,-0.021427317,-0.17720358,0.15268357,-0.10146346,0.05151427,0.13253203,0.33272174,-0.079158366,0.013699198,-0.3689376,0.122163735,-0.09519444,0.09350698,-0.12230891,0.00262857,0.079224356,0.13153902,0.24629982,0.009034158,-0.02969896,-0.21646786,0.3236737,0.10360768,0.12447252,0.07266886,0.016126413,-0.24961138,0.024736578,0.08955015,-0.14144684,0.17932501,-0.1268173,0.009054396,-0.09339614,0.15481785,-0.043445595,-0.0022714713,-0.14986962,0.14600813,-0.09199028,-0.1977636,0.10094204,-0.18151894,0.19987004,-0.22734308,-0.2509997,-0.016979715,-0.0051927576,0.034733187,0.058494348,0.12941939,-0.31092834,0.29870236,-0.08652533,-0.07165113,-0.04465086,-0.29086736,-0.114108756,1
-0.15162782,0.0626809,-0.1691505,0.041137904,-0.14844921,0.1852516,0.20648873,0.24440515,-0.084197134,-0.10226478,-0.22622523,0.1508422,0.03913966,0.23236458,-0.14400019,-0.18393412,0.008102807,-0.25372025,-0.10855957,0.019025551,-0.12386076,0.1255787,-0.027388755,0.20302361,0.30601606,-0.07834513,-0.22267266,0.08829199,-0.057610292,-0.16293776,-0.066869766,-0.20315641,-0.027607184,0.011830713,0.09197299,-0.057091743,0.20780776,-0.2918705,0.026393926,0.09687666,-0.012711472,-0.03233996,0.026651593,-0.1355681,0.037831347,-0.124406464,0.083407216,0.13917325,0.2706231,-0.100791946,-0.07893833,-0.3639837,0.0028399597,-0.06744541,0.09624547,-0.13138382,-0.022211337,0.049301337,0.10842651,0.1823517,-0.060938396,-0.06813393,-0.23959556,0.23172717,0.099141866,0.042666424,0.11216841,0.025015885,-0.200002,0.09528149,0.094923235,-0.11186013,0.08630512,-0.1551344,0.024559513,-0.062484886,0.08364747,0.04115139,-0.045360796,-0.20948265,0.05099304,-0.05545727,-0.16304222,0.13237329,-0.16059774,0.2073105,-0.15975253,-0.19710785,0.03053027,0.02653696,-0.06537578,0.044217482,0.13482773,-0.26903448,0.19571447,0.035229452,-0.0498069,0.09606504,-0.2138308,-0.1323684,1
-0.13710321,0.059647594,-0.15171887,0.0350695,-0.1296278,0.17036663,0.18836023,0.22308773,-0.08062608,-0.090769924,-0.20184974,0.13896824,0.035808522,0.21351302,-0.1309856,-0.16373552,0.004515704,-0.22734964,-0.10426885,0.020357994,-0.116904624,0.11194884,-0.018891146,0.18408237,0.2828816,-0.06759071,-0.20796335,0.077056356,-0.049475048,-0.14845093,-0.06586188,-0.18391775,-0.035866182,0.01352575,0.08365199,-0.058027938,0.19335423,-0.26878694,0.01763969,0.08828032,-0.0084963525,-0.026724488,0.0279755,-0.13096301,0.031884387,-0.106397815,0.07623611,0.12732579,0.24917674,-0.09353793,-0.06712424,-0.3272736,0.006727405,-0.061910417,0.0862242,-0.12315893,-0.01596922,0.05304114,0.10180026,0.17204528,-0.047913957,-0.05976987,-0.21762575,0.21394259,0.088860214,0.038442526,0.09966779,0.018546263,-0.1829149,0.08492169,0.088653825,-0.11046722,0.07972189,-0.13660589,0.019752743,-0.05423947,0.075380735,0.032035105,-0.037861403,-0.19333585,0.050422356,-0.048228253,-0.15173735,0.12016922,-0.14636311,0.19257545,-0.14635555,-0.18378024,0.02817884,0.029917082,-0.058746163,0.041371863,0.12613574,-0.24209534,0.17901377,0.026212359,-0.04772666,0.08115455,-0.19664896,-0.12079167,1
-0.17933238,0.06996643,-0.1945617,0.044839833,-0.1596479,0.21441573,0.24239476,0.28573018,-0.10891892,-0.111442536,-0.25847876,0.17957407,0.044985846,0.26283476,-0.16685987,-0.21091188,-0.0032308837,-0.2983797,-0.12847859,0.013473855,-0.14309728,0.1426583,-0.021915605,0.232459,0.36481822,-0.0837777,-0.24930961,0.09642324,-0.0684271,-0.18712775,-0.09052581,-0.2255906,-0.046627894,0.017328119,0.110172495,-0.06262961,0.24507935,-0.33536756,0.020480582,0.107160345,-0.009784218,-0.03849911,0.028163532,-0.15671882,0.04621212,-0.14199097,0.10011674,0.15729937,0.32129207,-0.13248552,-0.08353948,-0.41102368,0.0065708268,-0.08028492,0.10978169,-0.15256034,-0.022824297,0.055726487,0.123876914,0.20995052,-0.05875596,-0.07699291,-0.2762637,0.2748626,0.12188044,0.047584143,0.12788886,0.023754785,-0.23415937,0.10932682,0.110645816,-0.15007876,0.10009625,-0.17374018,0.023798503,-0.07223205,0.10121699,0.03869874,-0.058320966,-0.24456109,0.063805394,-0.06331044,-0.18834715,0.15208106,-0.18114026,0.2441037,-0.18965103,-0.23404635,0.042068157,0.029526655,-0.059932157,0.047830775,0.16003107,-0.3083089,0.22918147,0.0309902,-0.056284428,0.09655936,-0.2516963,-0.14712393,1
-0.13401572,0.057445686,-0.15538822,0.035993334,-0.13542716,0.17355458,0.19217832,0.21978264,-0.078806385,-0.09778934,-0.21271047,0.13619483,0.040853158,0.21398331,-0.13730063,-0.17037538,0.0029071372,-0.23295309,-0.10671827,0.017220318,-0.12061804,0.11654168,-0.026412524,0.1908895,0.29254177,-0.07324479,-0.21868299,0.0739189,-0.0504646,-0.15827258,-0.054757785,-0.1836799,-0.03464545,0.011277037,0.08237706,-0.063649766,0.19095021,-0.2738284,0.025957359,0.09441647,-0.014757391,-0.032522675,0.02569293,-0.12575139,0.032806735,-0.1154117,0.073238276,0.12602533,0.24736379,-0.08612709,-0.07272123,-0.3409182,0.0060853637,-0.064709485,0.09318687,-0.118934974,-0.011162733,0.05317983,0.10234366,0.17195597,-0.055806044,-0.05790965,-0.22066858,0.21546753,0.08468012,0.036586843,0.09813487,0.026865328,-0.1828945,0.08797149,0.08978048,-0.104639485,0.08257681,-0.13838845,0.023002999,-0.05969185,0.089699134,0.041726496,-0.04199,-0.19608113,0.049403954,-0.052589554,-0.14557359,0.12300769,-0.14433104,0.18813096,-0.15607402,-0.18729724,0.020953998,0.034336742,-0.04971659,0.038441487,0.12568891,-0.24501811,0.17989448,0.027871458,-0.042100716,0.08437882,-0.19398092,-0.128885,1
-0.110884905,0.04251148,-0.123082586,0.028975017,-0.106142126,0.13615753,0.15148744,0.17974271,-0.062240727,-0.07085503,-0.16227931,0.118375264,0.027935185,0.16861176,-0.104574606,-0.13290723,0.00044713705,-0.1874783,-0.08054818,0.01316086,-0.09328391,0.090292215,-0.019320281,0.15213527,0.22719474,-0.05531484,-0.16555052,0.06457359,-0.04092709,-0.12177353,-0.053722356,-0.14388286,-0.028722364,0.010392802,0.06518468,-0.044054814,0.15309858,-0.21772864,0.01679666,0.07286297,-0.006846318,-0.027049586,0.020036155,-0.10408379,0.030285,-0.08706758,0.05789077,0.099378385,0.19855897,-0.07177067,-0.05414583,-0.27027848,0.0071368795,-0.050376955,0.06925718,-0.09424298,-0.015802667,0.040297497,0.07910807,0.13923274,-0.0395675,-0.045926366,-0.17341734,0.17269886,0.072901174,0.032766636,0.080413565,0.018491838,-0.14899382,0.06535512,0.073792934,-0.082675956,0.06479859,-0.11463784,0.015407585,-0.046611607,0.06809764,0.027529912,-0.033023763,-0.15495688,0.041855123,-0.041691214,-0.1207093,0.09500092,-0.11806651,0.15033919,-0.11619412,-0.14265972,0.021850934,0.018688787,-0.043613568,0.032511294,0.094859354,-0.19621138,0.15106307,0.017731741,-0.036968965,0.06517051,-0.1571129,-0.09084963,1
-0.14151686,0.0509379,-0.15664347,0.03172248,-0.11633425,0.17042172,0.18717915,0.22534731,-0.08861842,-0.08581619,-0.19763826,0.14728059,0.039752413,0.20711313,-0.1327246,-0.16522874,-0.004430035,-0.24029364,-0.10694421,0.014660199,-0.12061194,0.11250509,-0.0167837,0.18625809,0.292143,-0.07001296,-0.20350558,0.07039994,-0.054884285,-0.1485693,-0.068309315,-0.17657451,-0.042449806,0.011939476,0.083514936,-0.056728378,0.19090001,-0.27255094,0.015800655,0.08904474,-0.0051401034,-0.032490637,0.022792146,-0.12922242,0.042627517,-0.11333774,0.07515575,0.12600054,0.25603908,-0.0988301,-0.06373593,-0.32753593,0.013181918,-0.05930776,0.08291386,-0.118669525,-0.016102629,0.04673387,0.09628743,0.16972865,-0.044664707,-0.05984721,-0.2208583,0.21778859,0.09362486,0.042969182,0.0993067,0.022763424,-0.18683445,0.08220945,0.08884113,-0.1104418,0.08658433,-0.1410314,0.018576764,-0.05476691,0.08859593,0.02570748,-0.044082973,-0.18539105,0.05442749,-0.052651275,-0.14781578,0.12511817,-0.14610031,0.19468842,-0.14985706,-0.18608087,0.03470251,0.029419515,-0.04117145,0.040834077,0.12957865,-0.24168944,0.18460372,0.01940624,-0.04236011,0.06689852,-0.1995834,-0.117629156,1
-0.18911415,0.066601865,-0.21383816,0.042018898,-0.1674895,0.23320794,0.2550674,0.30309737,-0.116271764,-0.1187581,-0.26996672,0.19906437,0.04635787,0.27754846,-0.17944764,-0.21918783,-0.0050722365,-0.31885442,-0.14302805,0.017569682,-0.1543135,0.149955,-0.0241849,0.25253794,0.39010358,-0.086059615,-0.26921692,0.106086046,-0.07561321,-0.1989409,-0.09497294,-0.23985454,-0.05131552,0.017542467,0.11580139,-0.06707941,0.26126125,-0.36639333,0.020196253,0.11440415,-0.008727061,-0.04616362,0.028862907,-0.17562166,0.055343837,-0.14446598,0.10498024,0.16614874,0.34537208,-0.13540578,-0.083507665,-0.4423949,0.0141711,-0.08414827,0.11365741,-0.15731087,-0.024751699,0.061866086,0.13095832,0.22800165,-0.05881267,-0.0782369,-0.29577887,0.29511395,0.12890829,0.055914853,0.1329784,0.030590693,-0.2519761,0.11292088,0.11959937,-0.15350243,0.114019886,-0.18572964,0.023041321,-0.075785644,0.111194715,0.035172693,-0.05894814,-0.2514562,0.07019405,-0.07328823,-0.20124064,0.16878459,-0.19607145,0.258182,-0.20505011,-0.24888597,0.04362966,0.02946823,-0.06302714,0.051341455,0.16777949,-0.32900268,0.25127387,0.027978668,-0.06123042,0.09299004,-0.27107424,-0.15371037,1
-0.14083104,0.05640809,-0.15075848,0.039174087,-0.12985058,0.17253616,0.19561397,0.2345701,-0.08190684,-0.089352235,-0.21178222,0.1445321,0.0357005,0.21361293,-0.1368687,-0.17150037,0.002022615,-0.23777887,-0.10571182,0.012962446,-0.115433455,0.115252785,-0.018883634,0.19260575,0.2933356,-0.06756087,-0.20966847,0.08332163,-0.060014665,-0.15291044,-0.06473727,-0.18457036,-0.036408897,0.014850074,0.0846336,-0.05018952,0.19631155,-0.27999115,0.021192983,0.090368494,-0.012993729,-0.031255294,0.025133941,-0.12821661,0.03373648,-0.108924754,0.08179177,0.12750712,0.25462428,-0.097095065,-0.07321347,-0.3390601,-0.0007344565,-0.06743795,0.0898148,-0.12440431,-0.021303525,0.04523058,0.09971975,0.1738397,-0.053221215,-0.063570425,-0.22341882,0.21649425,0.09553558,0.039320882,0.0986734,0.025933173,-0.18222941,0.0896108,0.08736547,-0.118103325,0.08181497,-0.14350033,0.023222309,-0.05529929,0.083175585,0.040686063,-0.048472412,-0.19666722,0.05251124,-0.051815808,-0.14833124,0.12432035,-0.14724645,0.18972464,-0.15065496,-0.18805404,0.029243907,0.022482391,-0.0519483,0.035581525,0.12949161,-0.2525706,0.18759927,0.026875062,-0.043368306,0.085408546,-0.19960426,-0.1268741,0
-0.08081216,0.03271861,-0.09005347,0.016653394,-0.07377,0.10189812,0.1113703,0.13075343,-0.049302597,-0.053223345,-0.12120119,0.082497604,0.022064034,0.1257454,-0.07644873,-0.097750016,0.00025134857,-0.14091854,-0.058178134,0.010161102,-0.06536208,0.06707779,-0.0154802045,0.112819366,0.16794878,-0.04005225,-0.12426232,0.047112763,-0.030087095,-0.08901503,-0.03672893,-0.10531105,-0.017467327,0.00874297,0.048477706,-0.031084852,0.11234656,-0.16204977,0.013932182,0.04850575,-0.0050637205,-0.023003586,0.013633368,-0.07578888,0.02359367,-0.065540455,0.04296603,0.074878,0.14414573,-0.05059223,-0.040628646,-0.19733496,0.002681499,-0.036411844,0.048114054,-0.06631987,-0.009224949,0.029568007,0.057825644,0.102432966,-0.029745696,-0.032145824,-0.12906383,0.1250867,0.053576175,0.021783667,0.059540413,0.014001776,-0.11106448,0.050405897,0.050739523,-0.061027724,0.049660154,-0.08038828,0.011629734,-0.035085678,0.04883594,0.021321408,-0.02533371,-0.110690325,0.030731376,-0.030606097,-0.090194866,0.06803285,-0.08664208,0.11176426,-0.08897307,-0.10527054,0.018087475,0.013988053,-0.028638624,0.025190521,0.07082498,-0.1468876,0.10639706,0.015109116,-0.024513066,0.048579976,-0.113581486,-0.06821178,1
-0.15243219,0.056442574,-0.16290629,0.03896299,-0.13556746,0.18732171,0.20063663,0.24080527,-0.08920137,-0.099256404,-0.216422,0.15569487,0.035630036,0.22226305,-0.1447479,-0.17718536,0.00061920256,-0.25769085,-0.11042497,0.01703068,-0.12500522,0.1210784,-0.026728934,0.20230167,0.30536032,-0.07569676,-0.21922861,0.081263445,-0.05445837,-0.16231757,-0.07287232,-0.19658506,-0.040381778,0.0123658525,0.087202884,-0.059740912,0.19778693,-0.28628972,0.026300661,0.092236586,-0.011942472,-0.034555003,0.024867019,-0.13762565,0.042865593,-0.12074012,0.076052986,0.13562225,0.27185485,-0.09957864,-0.06676051,-0.35217023,0.011698547,-0.06780009,0.09345517,-0.1246832,-0.016939914,0.052551866,0.107999094,0.18166931,-0.054697048,-0.061980113,-0.23017149,0.22978981,0.09881685,0.042885464,0.1067417,0.026599817,-0.20059799,0.09024016,0.09902096,-0.11040335,0.09130421,-0.1484062,0.022511253,-0.060962107,0.092705995,0.032044273,-0.04891108,-0.20139591,0.056250706,-0.05339521,-0.16234475,0.12825966,-0.15572597,0.20354104,-0.16031529,-0.19720191,0.035086144,0.030998662,-0.052335754,0.042536557,0.13449614,-0.26094618,0.19808026,0.023830188,-0.04717365,0.083027214,-0.21307474,-0.12258345,1
-0.08632327,0.036649767,-0.09710014,0.027296238,-0.089876086,0.11180734,0.12266767,0.15142627,-0.05290163,-0.061563272,-0.13710912,0.0888231,0.023010403,0.14052765,-0.0863494,-0.111873895,0.000558275,-0.1466883,-0.064046055,0.013326923,-0.07750502,0.07401524,-0.020163083,0.12734435,0.18571968,-0.043914665,-0.13407184,0.055191055,-0.032019127,-0.09943476,-0.034819994,-0.1169781,-0.01722402,0.0076455115,0.05522262,-0.035942703,0.121783756,-0.18035288,0.01618156,0.059611376,-0.008021098,-0.020093685,0.01790508,-0.081490315,0.023768554,-0.071754925,0.05441603,0.08293917,0.15974456,-0.06029002,-0.050281655,-0.22578788,-0.0018325587,-0.03743608,0.06273431,-0.073647596,-0.013638745,0.038653124,0.06718421,0.113431364,-0.03293382,-0.038612235,-0.14522806,0.13993317,0.059494544,0.027741691,0.06335954,0.012907428,-0.11831991,0.054953206,0.05610597,-0.06981737,0.05218618,-0.09274632,0.012405728,-0.04047661,0.04958792,0.029216575,-0.027314553,-0.12893124,0.029896608,-0.029687285,-0.09478513,0.08280179,-0.09528294,0.12352047,-0.096493244,-0.12319859,0.01187738,0.017917665,-0.039778206,0.026335368,0.07693874,-0.16165924,0.12055466,0.020060584,-0.031211125,0.056189418,-0.12749869,-0.077727966,1
-0.14787798,0.045866422,-0.16365372,0.032457724,-0.12171146,0.17491722,0.1927832,0.22587585,-0.08937813,-0.09271441,-0.20078282,0.14300776,0.03447269,0.20447508,-0.1355062,-0.16275209,-0.005398653,-0.24178648,-0.10699453,0.008029676,-0.112493604,0.118996434,-0.014320523,0.19288123,0.29306915,-0.06344232,-0.20638594,0.07748807,-0.058090594,-0.14663024,-0.079187855,-0.17371623,-0.039061718,0.01320426,0.08873989,-0.05408835,0.19350405,-0.27088445,0.013438032,0.08086196,-0.0009245592,-0.037619982,0.020038903,-0.1305866,0.044893656,-0.10568067,0.07756943,0.12487897,0.26215404,-0.104696244,-0.055209484,-0.32458305,0.013462512,-0.06589771,0.08393657,-0.12035637,-0.017150003,0.050920885,0.098539814,0.16732302,-0.039648984,-0.05737035,-0.21584849,0.220287,0.09491386,0.044528075,0.09543297,0.02182205,-0.19555919,0.08355406,0.090264745,-0.11665312,0.084160954,-0.14012548,0.015296717,-0.05786399,0.0860806,0.019281257,-0.04300126,-0.19139062,0.055120505,-0.051446855,-0.1523224,0.12946258,-0.14181495,0.19037545,-0.15298039,-0.19277191,0.03403248,0.022488808,-0.039406616,0.039859474,0.12592706,-0.24265811,0.18815169,0.016493892,-0.048085306,0.06319038,-0.20396037,-0.10652768,1
-0.1050325,0.039060008,-0.11665876,0.021239903,-0.088877246,0.1291223,0.13831265,0.16990206,-0.06716726,-0.0683283,-0.1484559,0.1150718,0.029179286,0.15937841,-0.103511885,-0.12532893,-0.0014746464,-0.18293509,-0.08184241,0.012752049,-0.0943053,0.08839537,-0.013680434,0.1440894,0.22508907,-0.052965615,-0.16222319,0.054107502,-0.03782117,-0.11415629,-0.05325315,-0.13492444,-0.036923498,0.010440491,0.0667988,-0.04777397,0.14803661,-0.20771852,0.014820296,0.06689097,-0.0082513625,-0.02903607,0.023754863,-0.10004994,0.033536457,-0.08174234,0.054543313,0.09532716,0.19123045,-0.06817418,-0.04560515,-0.25353506,0.013355657,-0.04454455,0.06294452,-0.08539255,-0.010339092,0.04139017,0.074160635,0.13696793,-0.03318018,-0.039922245,-0.17140877,0.16653365,0.06768859,0.030561646,0.0793101,0.01908045,-0.14214404,0.06136943,0.07101465,-0.07903743,0.07037343,-0.1081595,0.013913133,-0.04614381,0.06954149,0.019320555,-0.02899411,-0.14589572,0.040585004,-0.038675964,-0.112761274,0.0948633,-0.11196106,0.13999176,-0.119333595,-0.14071667,0.027412621,0.02134554,-0.030694466,0.028687568,0.094608776,-0.18238167,0.14360966,0.012348044,-0.035656728,0.04781432,-0.15285186,-0.08609039,1
-0.1449214,0.05606411,-0.15895994,0.030934801,-0.12205533,0.1751279,0.19611843,0.23318191,-0.0917625,-0.08911311,-0.20798099,0.15096699,0.040280998,0.21231924,-0.13080217,-0.17240247,-0.00918922,-0.24901141,-0.10781898,0.014036307,-0.12357974,0.12048621,-0.014301807,0.19546433,0.30219147,-0.06916053,-0.21021242,0.077314034,-0.0546331,-0.15304172,-0.07466655,-0.18544681,-0.044423692,0.015107595,0.09233726,-0.056312535,0.20056883,-0.2816657,0.014907986,0.08765775,-0.006610396,-0.03901452,0.029775338,-0.13285486,0.04295469,-0.11133392,0.07672826,0.12699302,0.26532987,-0.106184386,-0.06378306,-0.33335975,0.014070703,-0.06359909,0.087163076,-0.11936511,-0.015937539,0.048953332,0.09799641,0.17355998,-0.040230367,-0.058089394,-0.2242761,0.22775729,0.097554274,0.038595174,0.102183186,0.019071188,-0.19287579,0.082344666,0.08710518,-0.1214305,0.08526887,-0.14488474,0.013681671,-0.05893934,0.08845472,0.028668437,-0.04239318,-0.20013703,0.05583601,-0.056985315,-0.15439245,0.13100894,-0.14752331,0.19813158,-0.1617069,-0.20026909,0.038947243,0.025259664,-0.045976404,0.040888626,0.13133413,-0.24908577,0.19212888,0.02105877,-0.04225919,0.07487386,-0.20999014,-0.11889126,1
-0.11067696,0.043530863,-0.12147677,0.029529374,-0.10118489,0.13463351,0.14921682,0.1756888,-0.06552944,-0.07223552,-0.16089544,0.11548768,0.028237265,0.16556498,-0.104005545,-0.12634052,-0.0011992035,-0.18851897,-0.08171265,0.012241918,-0.09130616,0.09414745,-0.014745945,0.1484149,0.22701702,-0.049258657,-0.16248435,0.061259083,-0.037012395,-0.11485639,-0.048232988,-0.14375545,-0.026653633,0.009087631,0.063423246,-0.042496487,0.14975409,-0.21025091,0.014917735,0.06324978,-0.008914806,-0.027444705,0.0216874,-0.10108465,0.027225912,-0.09025479,0.058283508,0.09880716,0.19990078,-0.0709611,-0.049968265,-0.26208752,0.007229577,-0.048678648,0.0663576,-0.098654345,-0.011802442,0.03643706,0.07606811,0.13619685,-0.03855795,-0.04362022,-0.17307687,0.17012869,0.06879897,0.031300817,0.080923714,0.021409584,-0.14356463,0.0643309,0.06902649,-0.08086585,0.06493751,-0.11129696,0.018468397,-0.04486271,0.07026568,0.027222553,-0.032215305,-0.15277927,0.039116904,-0.039203607,-0.11727834,0.09453126,-0.11235503,0.14784442,-0.12033506,-0.14446795,0.027237585,0.020600023,-0.041267633,0.029831914,0.09454511,-0.19431977,0.14604057,0.018910507,-0.035569515,0.062406573,-0.15624347,-0.09449671,1
-0.1481355,0.05379078,-0.15943854,0.036556568,-0.13245001,0.1761643,0.1977234,0.23662739,-0.088847354,-0.094313286,-0.20860106,0.14732009,0.032731906,0.21979946,-0.13726383,-0.1723624,0.00015208671,-0.2408543,-0.10848713,0.013613725,-0.11916181,0.1171115,-0.017522108,0.19459388,0.29844972,-0.06529963,-0.20617522,0.07917441,-0.05790545,-0.1508081,-0.07503629,-0.1842299,-0.03705205,0.013162519,0.08394008,-0.0507138,0.19916807,-0.27889237,0.018994177,0.08726618,-0.004565384,-0.03306955,0.025111536,-0.13267852,0.03720764,-0.115105785,0.07946558,0.13121271,0.26529816,-0.10448774,-0.06996695,-0.34004357,0.008003186,-0.063054875,0.090855554,-0.123412274,-0.019117309,0.046294782,0.10265186,0.17380287,-0.049562775,-0.06436343,-0.2232572,0.2217748,0.10115149,0.039513297,0.102915496,0.023182029,-0.19024502,0.08727562,0.094094835,-0.11729181,0.084455155,-0.14585999,0.01904643,-0.058500074,0.08390282,0.03246814,-0.047009356,-0.20140418,0.051235475,-0.0501801,-0.15324119,0.12461166,-0.1464689,0.19770953,-0.15500803,-0.19256623,0.035085417,0.024091545,-0.05160084,0.04082806,0.12838139,-0.25222215,0.19235627,0.02856205,-0.04618173,0.07914698,-0.20499006,-0.116027035,1
-0.14454225,0.054419626,-0.15644567,0.036717765,-0.13025495,0.16966605,0.19031008,0.2255613,-0.083276615,-0.09175273,-0.20161372,0.14230205,0.03203262,0.21364443,-0.13100044,-0.16578205,0.002128869,-0.23595269,-0.10349932,0.013285439,-0.11530399,0.11292321,-0.017235687,0.19173,0.28908902,-0.0665718,-0.20551708,0.07414679,-0.05456391,-0.14908123,-0.06951129,-0.1807554,-0.032673195,0.0116837155,0.082632504,-0.051518016,0.1926629,-0.27235612,0.021537581,0.09110888,-0.010667212,-0.032109827,0.025092369,-0.12784001,0.033736117,-0.109876916,0.07661277,0.12777707,0.256735,-0.09750037,-0.06668275,-0.3368812,0.005764497,-0.060026795,0.08595173,-0.12086758,-0.018833242,0.045982216,0.100695305,0.17040789,-0.04916937,-0.06102684,-0.2224562,0.21224703,0.09776113,0.037896916,0.10323719,0.021092758,-0.18498297,0.08669312,0.09100433,-0.11266351,0.08014629,-0.14081992,0.019498931,-0.05420207,0.08033203,0.034544237,-0.0469122,-0.19757077,0.049717393,-0.05243142,-0.1518755,0.124117054,-0.14643417,0.1920703,-0.15068118,-0.18509752,0.02929249,0.02476878,-0.053400483,0.038485434,0.124357894,-0.24527507,0.18497908,0.025697246,-0.042841837,0.07731817,-0.19898392,-0.11578254,0
-0.10938698,0.040197585,-0.118465304,0.025755288,-0.09739835,0.12701511,0.14108364,0.17036264,-0.06413736,-0.06955959,-0.15349534,0.10716667,0.025170986,0.16079366,-0.099297084,-0.12456971,0.0005283856,-0.17477883,-0.07736275,0.010669095,-0.08575513,0.08408116,-0.013721021,0.1409631,0.215673,-0.05069795,-0.14868334,0.055768285,-0.040424563,-0.1127907,-0.05334579,-0.13204218,-0.024336291,0.0073718927,0.063626766,-0.03733972,0.14637645,-0.20147808,0.011445669,0.06737816,-0.005199714,-0.022548033,0.017280692,-0.095235035,0.024920383,-0.08617196,0.06289025,0.093731426,0.19047539,-0.077558935,-0.050900944,-0.2465309,-0.00065085955,-0.046927888,0.06692412,-0.09210503,-0.013437299,0.03526974,0.07402059,0.1250007,-0.035339396,-0.048295308,-0.16435672,0.16100645,0.072859876,0.029535115,0.079115435,0.016127015,-0.13921715,0.06578354,0.06492714,-0.08791882,0.058739644,-0.10526832,0.011747792,-0.043439828,0.05811719,0.024977805,-0.03381735,-0.14505164,0.03485539,-0.036049403,-0.11039301,0.09370263,-0.108238,0.14248286,-0.111292295,-0.14020084,0.024387369,0.01764359,-0.038744655,0.029129693,0.095113814,-0.18566684,0.13631383,0.022480307,-0.033370476,0.060700905,-0.1457669,-0.086699806,1
-0.1594018,0.034578737,-0.18434155,0.01577426,-0.11159819,0.21813723,0.24042137,0.26568285,-0.11917291,-0.09189783,-0.22886387,0.18333659,0.0380172,0.22972527,-0.16521618,-0.18701039,-0.03492794,-0.30738908,-0.137507,0.011998569,-0.1348731,0.14181802,-0.0049213353,0.22913964,0.36557367,-0.06888376,-0.27271122,0.08021586,-0.052643888,-0.17828688,-0.09306793,-0.19961706,-0.07580651,0.027540151,0.11904856,-0.075461484,0.22306383,-0.33562878,0.0072572455,0.086896956,0.016541582,-0.062506184,0.017871022,-0.16308644,0.08637872,-0.118583895,0.07466777,0.13948445,0.30767286,-0.104950264,-0.036719725,-0.37426907,0.050611544,-0.077439874,0.0956254,-0.12835875,-0.010560232,0.0672022,0.1167977,0.21725008,-0.029577905,-0.05277168,-0.24257652,0.27745166,0.101411305,0.071496986,0.09897224,0.023472574,-0.23166466,0.07650495,0.09710956,-0.13677937,0.12611917,-0.14965716,0.01555267,-0.07539488,0.12191038,0.0040922933,-0.03242784,-0.19849321,0.09224328,-0.06847576,-0.17947017,0.12923382,-0.17130859,0.2133133,-0.19540145,-0.227375,0.025910908,0.01957449,-0.018559417,0.048885126,0.14086564,-0.2882673,0.24726732,-0.013422335,-0.05905695,0.031498883,-0.25425956,-0.12525822,1
-0.061736412,0.021709424,-0.07527316,0.0090656355,-0.065155834,0.0940706,0.10387407,0.11184275,-0.04121019,-0.044639844,-0.10992321,0.06901341,0.019099556,0.105642796,-0.07274372,-0.08457761,-0.005490219,-0.12392867,-0.060715422,0.008753418,-0.05984145,0.06696307,-0.012173029,0.10339029,0.15269393,-0.031233104,-0.12076166,0.041780803,-0.02044008,-0.083528444,-0.02593663,-0.087309614,-0.022927027,0.009647032,0.04693073,-0.03083439,0.09665867,-0.14261101,0.009071715,0.043282185,-0.0022409894,-0.021776535,0.008205662,-0.066089354,0.024851423,-0.054648306,0.03442284,0.06159508,0.12502095,-0.03665248,-0.03149698,-0.17202756,0.008475845,-0.037720278,0.048245743,-0.060879536,-0.0039922786,0.03208781,0.053668913,0.08959881,-0.02358647,-0.02269216,-0.1094938,0.113684386,0.038977973,0.025154756,0.045014538,0.012514632,-0.09367222,0.03452208,0.042797063,-0.054307126,0.049744964,-0.06603616,0.013536939,-0.034952622,0.051263824,0.01830294,-0.01710649,-0.09044712,0.032131203,-0.030614266,-0.07373325,0.05615981,-0.07364166,0.08891375,-0.08529575,-0.09942481,0.0025847347,0.010520403,-0.01879443,0.019596614,0.060741782,-0.1261051,0.097348705,0.005543099,-0.021597613,0.03178535,-0.10197231,-0.06752172,1
-0.10525665,0.039849903,-0.11554679,0.022524364,-0.098853946,0.13419569,0.15274079,0.17379595,-0.06562472,-0.06743134,-0.15367977,0.11133969,0.027477335,0.16153166,-0.10336411,-0.12584582,-0.0051779207,-0.17956437,-0.0810619,0.014904559,-0.09092628,0.09201855,-0.015144677,0.14322707,0.21973124,-0.051867697,-0.16185053,0.05620319,-0.041480467,-0.11789224,-0.04820858,-0.13671577,-0.031969495,0.014400869,0.06756533,-0.04800208,0.1451624,-0.20812584,0.018305475,0.06553591,-0.0047055315,-0.025984097,0.013597942,-0.096225925,0.028365286,-0.08198226,0.053677607,0.10129335,0.1915534,-0.06606616,-0.0457392,-0.2556127,0.010650351,-0.046582136,0.066224806,-0.0874849,-0.010051515,0.03681874,0.07433391,0.13423966,-0.03591141,-0.043888595,-0.16174267,0.16950507,0.068889804,0.03555616,0.0780839,0.013654613,-0.14246446,0.060959753,0.07064072,-0.0787806,0.06455898,-0.10920053,0.017063044,-0.041730717,0.066798896,0.024216961,-0.030686975,-0.14645249,0.04433845,-0.03707883,-0.118589304,0.09088799,-0.11187586,0.14256696,-0.11802434,-0.13924028,0.019055815,0.018120991,-0.0391459,0.026375754,0.09345731,-0.18589124,0.14261974,0.01401155,-0.03348138,0.054734334,-0.15451609,-0.090612836,0
-0.11482193,0.042588152,-0.12574895,0.027287448,-0.10043109,0.1386807,0.1544211,0.18246277,-0.06783685,-0.07033433,-0.16312961,0.11607992,0.026543641,0.16843437,-0.10659443,-0.13364351,-0.0006992343,-0.19291964,-0.08339803,0.011269476,-0.094599955,0.09276106,-0.014445506,0.15246692,0.23249537,-0.057161883,-0.16154507,0.06252839,-0.044513527,-0.11850912,-0.056432996,-0.14632563,-0.028213073,0.011554855,0.07114466,-0.04270423,0.1567141,-0.21813537,0.017990237,0.07146257,-0.0061660246,-0.027128933,0.022359336,-0.104041055,0.03182532,-0.08778348,0.0619028,0.09836073,0.203585,-0.07653445,-0.05143803,-0.26870555,0.008891474,-0.049892496,0.06802124,-0.09357005,-0.015270762,0.036388136,0.07828312,0.14030643,-0.038579103,-0.04651533,-0.17801116,0.17291851,0.077987894,0.03126932,0.08092604,0.019392736,-0.14978734,0.06716919,0.07270546,-0.08603637,0.06723199,-0.11382596,0.013981667,-0.043766674,0.06473145,0.027282221,-0.035071198,-0.15332776,0.039791036,-0.042291436,-0.122636296,0.09895235,-0.11532331,0.15335056,-0.120367564,-0.14920889,0.02623048,0.018156711,-0.0407698,0.032743204,0.09929793,-0.19580576,0.15019166,0.020246524,-0.035177715,0.06096364,-0.16077867,-0.09481947,1
-0.12901838,0.045888275,-0.14098185,0.030423157,-0.11472818,0.15368088,0.17257018,0.2065049,-0.07177076,-0.083414644,-0.18021576,0.13373601,0.030241258,0.19158186,-0.12039925,-0.15043835,0.0037712215,-0.21518815,-0.09534069,0.014184091,-0.106764235,0.10038271,-0.020855838,0.17229354,0.25968823,-0.06484297,-0.18583426,0.06681642,-0.049200013,-0.13417472,-0.060550615,-0.16903229,-0.028359592,0.011023382,0.074037395,-0.046848018,0.1705727,-0.2491042,0.01860917,0.08042997,-0.005030461,-0.02585449,0.02286544,-0.11894573,0.036519773,-0.10122178,0.06803039,0.11642174,0.22799836,-0.08708033,-0.05965288,-0.3024429,0.009236621,-0.056079373,0.08048913,-0.103886105,-0.016178668,0.042172253,0.089605205,0.15808724,-0.046451617,-0.05405729,-0.20384645,0.19415104,0.08447117,0.03724615,0.0917491,0.022625739,-0.16761373,0.076559,0.0819231,-0.09551586,0.07220414,-0.12730469,0.017905511,-0.052509774,0.07504909,0.028636226,-0.042042315,-0.17232881,0.04595636,-0.04817588,-0.13578838,0.112256676,-0.13299707,0.1756089,-0.13274865,-0.16644393,0.02892932,0.02587369,-0.04643395,0.0345999,0.11002201,-0.22117418,0.16816302,0.02386464,-0.039268672,0.072096735,-0.181933,-0.106038466,1
-0.12539686,0.042556357,-0.1370383,0.027778966,-0.113777064,0.15234444,0.1665486,0.20038478,-0.07560862,-0.08082675,-0.17939486,0.12895045,0.03209118,0.1886771,-0.115347944,-0.14776532,-0.0011201793,-0.21418752,-0.09398042,0.016516479,-0.10893858,0.10169118,-0.019242376,0.16998443,0.25614184,-0.06555594,-0.18424709,0.06489455,-0.04451356,-0.13293612,-0.058011763,-0.16338588,-0.031824432,0.010869569,0.07835327,-0.049778007,0.17158605,-0.23983006,0.017074976,0.07868229,-0.008260171,-0.029615317,0.02204538,-0.11478276,0.03538263,-0.09590707,0.06537681,0.10895772,0.22244135,-0.07600733,-0.055373903,-0.2966685,0.006028093,-0.055970076,0.07788367,-0.10473447,-0.010706367,0.041536804,0.08844042,0.15532902,-0.03769216,-0.053460147,-0.1965305,0.19358651,0.082772516,0.034431968,0.089127816,0.019130621,-0.16111457,0.07250356,0.07865862,-0.093719676,0.07263478,-0.12455533,0.014982193,-0.051917326,0.07665556,0.026734224,-0.03495697,-0.16940066,0.04877768,-0.04785392,-0.13578421,0.10659126,-0.13227724,0.17147782,-0.1348847,-0.16060087,0.022818705,0.02275168,-0.04435737,0.037688844,0.10762104,-0.21502782,0.16606675,0.013974256,-0.040289998,0.06612825,-0.17234339,-0.10519636,1
-0.15223102,0.007185514,-0.17825818,-0.012208343,-0.094356656,0.23250803,0.2643001,0.26162624,-0.13025555,-0.076900005,-0.2291275,0.19113454,0.037522048,0.2271024,-0.16426364,-0.17591839,-0.06073334,-0.33472818,-0.1478828,-0.00071859395,-0.1260089,0.15810613,0.008444884,0.23568492,0.38142043,-0.045117658,-0.29240704,0.08853183,-0.0453812,-0.17921957,-0.10620113,-0.18394518,-0.09839251,0.040232938,0.144797,-0.07552045,0.22273974,-0.3478636,-0.0037131384,0.06404152,0.035821263,-0.079186514,0.0026996918,-0.16702247,0.10813677,-0.10745821,0.06863598,0.131237,0.32404983,-0.09963204,-0.013944166,-0.36412945,0.07436562,-0.084204525,0.096873924,-0.12933627,-0.008609014,0.06935518,0.12023114,0.22209525,-0.0059666024,-0.045815133,-0.22471277,0.29264015,0.10684989,0.0935169,0.092072055,0.019209227,-0.23358694,0.04665103,0.09485439,-0.14589573,0.14406554,-0.13924369,0.007471998,-0.084537655,0.12682088,-0.019674588,-0.02389333,-0.17339168,0.11353588,-0.077211805,-0.18850484,0.123346865,-0.17270888,0.20622131,-0.20805934,-0.24215321,0.0040758974,0.008387173,0.0033124045,0.05530716,0.1339145,-0.29213548,0.26302105,-0.044490524,-0.06471082,-0.006741221,-0.26087517,-0.11474575,1
-0.13121314,0.026125142,-0.1577568,0.010461498,-0.10208653,0.1883912,0.21587434,0.2303189,-0.09553932,-0.072920196,-0.2004323,0.1561673,0.031890187,0.20350794,-0.13878031,-0.16234107,-0.026180442,-0.27005675,-0.1183455,0.010659762,-0.1130206,0.1296864,-0.0050515095,0.20085701,0.31036842,-0.05664612,-0.2355679,0.07844725,-0.042345434,-0.15776408,-0.07445386,-0.17204739,-0.060843248,0.02371915,0.10817091,-0.06166095,0.19203036,-0.29302323,0.012532657,0.06984065,0.013892479,-0.05230811,0.0073672943,-0.13587354,0.07296718,-0.10340299,0.06459931,0.12457052,0.26437473,-0.08133281,-0.037344154,-0.32672527,0.04371526,-0.06999059,0.084276505,-0.110061444,-0.010981333,0.05277396,0.10477767,0.18692768,-0.026703179,-0.047958404,-0.20704363,0.23946458,0.09286441,0.06799131,0.082968384,0.018863685,-0.19457535,0.062259033,0.08619715,-0.11130061,0.109807946,-0.12996988,0.015065913,-0.06609745,0.09978046,0.007204615,-0.025486892,-0.1691283,0.08129123,-0.06132124,-0.16244093,0.1125384,-0.1490949,0.18373449,-0.16787529,-0.194236,0.013778746,0.012589403,-0.023835218,0.044500608,0.12020377,-0.25343487,0.21348344,-0.009937722,-0.050845265,0.03346311,-0.22104715,-0.11174259,1
-0.15870357,0.05950627,-0.17235541,0.040162954,-0.1448156,0.19084907,0.21100858,0.25253963,-0.08987087,-0.10614385,-0.23001263,0.16255517,0.03669358,0.24073842,-0.15251842,-0.1876046,-0.0015497251,-0.26370755,-0.118078865,0.017576955,-0.13114965,0.12802383,-0.022450676,0.21532527,0.32161716,-0.07600195,-0.2297101,0.08728323,-0.058649328,-0.16505809,-0.07314363,-0.20450757,-0.034670014,0.015196358,0.09242648,-0.062313106,0.21600215,-0.30551744,0.022912558,0.09973599,-0.012529608,-0.03662955,0.02861266,-0.14678247,0.045606747,-0.1265001,0.08203057,0.1434387,0.28259057,-0.105353005,-0.07582352,-0.3770482,0.007857521,-0.0696716,0.09432563,-0.12817235,-0.018618368,0.05715645,0.11164938,0.1953685,-0.049675003,-0.0635411,-0.244921,0.24070117,0.10569558,0.044427402,0.11354574,0.025576541,-0.20878394,0.09826232,0.10317092,-0.11676734,0.089397795,-0.16144425,0.023967976,-0.06786665,0.09434541,0.039104797,-0.046520386,-0.2174844,0.058604036,-0.056828067,-0.16832773,0.13884768,-0.16601592,0.2140543,-0.16769467,-0.2052363,0.034512796,0.02729173,-0.059675116,0.043553907,0.13673365,-0.27619612,0.21228856,0.028462423,-0.054353945,0.08874197,-0.22288783,-0.12964953,1
-0.07934823,0.029766291,-0.08491633,0.01642669,-0.067747824,0.09586848,0.105041154,0.123174526,-0.046665642,-0.04963143,-0.11274197,0.084427215,0.01883301,0.11602247,-0.072268225,-0.08974966,0.0007523539,-0.13196982,-0.05732258,0.008145011,-0.065585464,0.06559736,-0.012322471,0.10547186,0.1625353,-0.04041279,-0.112603925,0.042806312,-0.027438296,-0.084655985,-0.035603397,-0.101606615,-0.022954553,0.0081279585,0.04912988,-0.030162286,0.10825314,-0.14836869,0.009619067,0.049607374,-0.006639012,-0.017639339,0.015719492,-0.07484695,0.019703088,-0.061307535,0.038013894,0.07250593,0.13912252,-0.052345876,-0.03456581,-0.18571702,0.0066781132,-0.032556895,0.04501023,-0.06469836,-0.0114161465,0.026102563,0.055709608,0.09956403,-0.027271891,-0.03220018,-0.12236753,0.11948786,0.05320377,0.023233911,0.057469606,0.013388251,-0.10197458,0.045672663,0.052175563,-0.057391234,0.045351014,-0.080497146,0.011156106,-0.03016833,0.046935357,0.019140106,-0.022404926,-0.106165044,0.029402401,-0.027604006,-0.08497084,0.06594167,-0.08054216,0.10602727,-0.08669106,-0.10314455,0.019600313,0.016762447,-0.02950407,0.024383724,0.06746779,-0.13631251,0.10535726,0.012308255,-0.021875791,0.041835316,-0.11002738,-0.06376776,1
-0.1479334,0.052133933,-0.16303304,0.03659359,-0.13526121,0.1849208,0.20541039,0.2420512,-0.0910062,-0.09388665,-0.2152417,0.15085644,0.03499853,0.2216009,-0.1431364,-0.1743688,-0.0019561087,-0.24657185,-0.11027817,0.0145322215,-0.12219152,0.12101987,-0.015223067,0.20026249,0.3072654,-0.068707064,-0.2185592,0.0846541,-0.05880869,-0.15869346,-0.07193795,-0.1891401,-0.036092684,0.014485576,0.08801004,-0.054105267,0.20168632,-0.2889703,0.017556736,0.09095143,-0.0036919536,-0.034830526,0.020665145,-0.13452372,0.039546523,-0.11594217,0.0850098,0.13353562,0.26955286,-0.10261469,-0.066996165,-0.35116017,0.009382651,-0.06789448,0.09333568,-0.12522025,-0.019373398,0.050014596,0.101926856,0.1808992,-0.0506172,-0.064492635,-0.23377943,0.22681451,0.10025004,0.040381614,0.1066441,0.023702182,-0.1968528,0.08873594,0.09402886,-0.12261036,0.088242054,-0.1486089,0.01993023,-0.060297318,0.086040534,0.03422835,-0.045082733,-0.20293492,0.057868913,-0.057305243,-0.1599252,0.12905604,-0.15077594,0.20131718,-0.16386396,-0.1945137,0.03300533,0.023890616,-0.050853122,0.04053328,0.1311225,-0.25990656,0.19739069,0.028374264,-0.045290668,0.077829994,-0.21425718,-0.12561241,1
-0.14975677,0.059268977,-0.15931047,0.03803062,-0.13823058,0.18318243,0.20422216,0.24119431,-0.08927789,-0.0982928,-0.21870774,0.15449423,0.03755854,0.21997309,-0.13796236,-0.17519718,0.0037353036,-0.24893655,-0.11183795,0.02052853,-0.12445826,0.120914675,-0.023339199,0.20339523,0.30428016,-0.07567149,-0.21585079,0.08672411,-0.05895221,-0.15835482,-0.06372752,-0.19195694,-0.040662706,0.011663021,0.09063813,-0.060863625,0.20155066,-0.28911728,0.026323212,0.09562347,-0.01106356,-0.035590515,0.035240576,-0.13619179,0.0395365,-0.11517879,0.07759088,0.13757142,0.2657885,-0.09614268,-0.0680859,-0.35935435,0.006749092,-0.06506512,0.09222042,-0.12537174,-0.021013282,0.05404216,0.10594835,0.1849563,-0.048897162,-0.06565231,-0.23613192,0.22582516,0.09364505,0.041831497,0.11010727,0.022777049,-0.19481188,0.08801248,0.093803026,-0.10845078,0.08838398,-0.14868122,0.022064911,-0.0641262,0.08599341,0.03742117,-0.04223765,-0.20338067,0.053853143,-0.05325248,-0.15811323,0.12919614,-0.15597402,0.20595647,-0.16027766,-0.196163,0.032206275,0.027369278,-0.05542506,0.043110155,0.13109486,-0.25780284,0.19694144,0.026159639,-0.043813504,0.08976874,-0.20759353,-0.12537323,1
-0.12218484,0.047724046,-0.13400131,0.030226285,-0.10810108,0.15172954,0.16275997,0.19728455,-0.07312827,-0.07866862,-0.1756483,0.13077916,0.03563429,0.18568294,-0.115768604,-0.14910874,-0.0029002915,-0.21405771,-0.09423845,0.019662963,-0.108117424,0.101216294,-0.021208076,0.1675871,0.25316748,-0.06604573,-0.18701616,0.06424496,-0.04468592,-0.13459004,-0.053379722,-0.16130933,-0.03703906,0.010485331,0.06902857,-0.050523378,0.16699257,-0.24022797,0.020720316,0.078441255,-0.0058906153,-0.028152978,0.02406148,-0.116502725,0.03551805,-0.10036928,0.06087041,0.112677895,0.22075666,-0.076072045,-0.05531157,-0.2923201,0.012891499,-0.053674378,0.07787546,-0.100775994,-0.012157908,0.040937647,0.08471001,0.15237774,-0.044275444,-0.051752634,-0.1931524,0.18886541,0.08317495,0.03760535,0.08916358,0.022550246,-0.16395961,0.07019694,0.08165795,-0.08881442,0.07702715,-0.12215806,0.019454483,-0.047920924,0.07718372,0.02713903,-0.034520242,-0.17072743,0.050618302,-0.045693398,-0.13194974,0.11286791,-0.13362767,0.17130248,-0.13382687,-0.16166638,0.031368542,0.028931199,-0.04171023,0.035509124,0.11083307,-0.21271172,0.16199876,0.017729495,-0.036823608,0.06731866,-0.17576787,-0.105744235,1
-0.11688416,0.031520024,-0.1327625,0.017262483,-0.095369555,0.15577455,0.17022435,0.19333902,-0.083427206,-0.06620183,-0.17379127,0.13032444,0.026395857,0.17567943,-0.114521556,-0.13832948,-0.01590838,-0.21788974,-0.09616765,0.0075739212,-0.096979916,0.103091896,-0.0061819674,0.16557325,0.25975385,-0.053903244,-0.19027737,0.065531224,-0.041092753,-0.12999704,-0.06624423,-0.14773087,-0.045074195,0.018309439,0.083749935,-0.048576333,0.16444302,-0.24206865,0.0111744525,0.06502802,0.006393651,-0.043093707,0.012753261,-0.11162308,0.04880829,-0.08902458,0.0595946,0.104534715,0.22638214,-0.07946415,-0.042720903,-0.27781725,0.025373988,-0.0548707,0.06921896,-0.09790212,-0.014587532,0.040510565,0.084066935,0.15706468,-0.0291123,-0.047021646,-0.18217029,0.1946696,0.07961682,0.045419574,0.07607779,0.016787557,-0.16242254,0.0616172,0.07691752,-0.099843025,0.08259261,-0.11331743,0.015917096,-0.050969362,0.08254934,0.013531524,-0.025687715,-0.15014385,0.05962641,-0.0487784,-0.13247094,0.10095568,-0.12513353,0.15872276,-0.13841873,-0.16320199,0.02319911,0.017662546,-0.023615953,0.03463278,0.10232696,-0.21060714,0.17156787,0.00080513785,-0.04074974,0.040650614,-0.18025324,-0.094773956,1
-0.123789765,0.048846282,-0.13380902,0.022980262,-0.10481404,0.15795031,0.16779268,0.19801097,-0.07522987,-0.08251039,-0.17869434,0.13127121,0.034345765,0.18218325,-0.1143777,-0.14528742,-0.006722592,-0.20977493,-0.089846276,0.012128892,-0.10797676,0.10180841,-0.013435411,0.17444015,0.26018772,-0.062045813,-0.18767154,0.06501508,-0.048360318,-0.1366094,-0.057813775,-0.15555908,-0.042257816,0.012385028,0.076098196,-0.05777514,0.16907197,-0.23938885,0.017180627,0.08017319,-0.0054330314,-0.034086443,0.031460524,-0.11587767,0.0368167,-0.09412174,0.05963136,0.11235996,0.22729369,-0.08065713,-0.048249405,-0.29405794,0.007900535,-0.055859037,0.078265466,-0.10423515,-0.012513483,0.047207933,0.0884033,0.14769754,-0.03700768,-0.04542906,-0.20026724,0.19064915,0.08185543,0.03633385,0.09184425,0.018191436,-0.16742854,0.06950383,0.0827937,-0.093222186,0.07617749,-0.12610921,0.016199239,-0.052660108,0.07631554,0.025240775,-0.036274597,-0.16450045,0.051549852,-0.046577595,-0.13794643,0.10852645,-0.12855841,0.16353363,-0.13706669,-0.16603145,0.028403148,0.025029216,-0.03976289,0.037923902,0.11195874,-0.21886435,0.16427162,0.013871005,-0.038836736,0.059057675,-0.17642125,-0.10515966,1
-0.15278763,0.06391454,-0.17428426,0.038462352,-0.14851202,0.19186266,0.21863528,0.25484315,-0.0873744,-0.10310776,-0.22950144,0.16026266,0.03890046,0.24377342,-0.14940695,-0.1898642,0.00878526,-0.26247063,-0.11397251,0.021079978,-0.12846829,0.12820254,-0.025251737,0.2084931,0.31738046,-0.07879286,-0.2323577,0.08700364,-0.058889907,-0.17172474,-0.0726295,-0.20493616,-0.03538336,0.014545203,0.09314292,-0.058896046,0.21555538,-0.3047934,0.023755573,0.09979697,-0.008311438,-0.034512896,0.029376155,-0.14498477,0.037804525,-0.12526296,0.0883494,0.14687756,0.2796509,-0.10182234,-0.0795213,-0.3725252,0.008750192,-0.07173674,0.099642254,-0.13555087,-0.0231791,0.05666253,0.110768974,0.19113098,-0.05668995,-0.065384366,-0.24359263,0.24384238,0.10289594,0.045555364,0.11460149,0.021249274,-0.20868112,0.09649219,0.101082586,-0.11762037,0.09291005,-0.15985833,0.024317643,-0.062607296,0.08814848,0.03940299,-0.04430944,-0.21824199,0.05604839,-0.05297777,-0.17119257,0.13309705,-0.16652533,0.21549232,-0.16679877,-0.20306729,0.031805675,0.0264285,-0.064248934,0.046199974,0.13759227,-0.27576783,0.20527361,0.02943878,-0.051896725,0.09676742,-0.22112197,-0.12934294,1
-0.120308824,0.041860383,-0.13510124,0.027460506,-0.10288418,0.15240856,0.15874158,0.19265866,-0.07693253,-0.07655935,-0.16967703,0.13129036,0.030654704,0.18127255,-0.114308976,-0.13945453,-0.0018024637,-0.2093964,-0.09350022,0.017980913,-0.10560763,0.09824141,-0.011967368,0.16363752,0.25191322,-0.06524751,-0.18066762,0.06190784,-0.04414055,-0.12861392,-0.055668365,-0.15191483,-0.039240196,0.012671654,0.07189371,-0.053277176,0.16735165,-0.23842768,0.017281892,0.074498326,-0.0066548996,-0.032969315,0.023841739,-0.114853084,0.04180829,-0.09735397,0.058837354,0.10934064,0.21807684,-0.0798061,-0.044874404,-0.28440103,0.015329469,-0.054286037,0.07032774,-0.09529341,-0.013134043,0.04778852,0.08118676,0.153191,-0.034644112,-0.046098504,-0.19019897,0.18772726,0.07472109,0.038308084,0.08180532,0.016127285,-0.16048445,0.06845147,0.077640854,-0.09020135,0.0752409,-0.11925185,0.01926845,-0.047993198,0.08175952,0.024489908,-0.03565191,-0.16684197,0.047310177,-0.04331843,-0.12802806,0.10186068,-0.12756957,0.16464794,-0.13495533,-0.15952629,0.029810442,0.022546276,-0.03433617,0.033598725,0.106369376,-0.20841189,0.16607736,0.013500131,-0.04324171,0.05759409,-0.17025582,-0.09823191,1
-0.15216154,0.05689406,-0.16731036,0.030762875,-0.13192625,0.1886207,0.20427455,0.24114694,-0.095404305,-0.09588125,-0.21921162,0.15611131,0.03877603,0.22538526,-0.14004444,-0.17495883,-0.0058484883,-0.25709155,-0.113700785,0.017917521,-0.12685853,0.121865176,-0.017302873,0.20336801,0.3143321,-0.07146732,-0.21693939,0.07751009,-0.05694793,-0.1558373,-0.07602828,-0.18764757,-0.044071864,0.015979826,0.09513507,-0.058751266,0.20959687,-0.29018345,0.017398022,0.096306585,-0.0028984079,-0.039895516,0.024653917,-0.13641573,0.039999366,-0.1135192,0.079221964,0.13705714,0.27821565,-0.108959936,-0.065664776,-0.355044,0.0058412044,-0.06951261,0.0932403,-0.12877119,-0.017212382,0.050182343,0.10147456,0.18656708,-0.04438136,-0.063358344,-0.2342512,0.23298101,0.10306347,0.046629135,0.106536835,0.021620998,-0.19954015,0.08912089,0.0970487,-0.12394302,0.08602638,-0.14887741,0.016282622,-0.05972654,0.089098565,0.029888695,-0.045623828,-0.20268293,0.061184626,-0.05427287,-0.1613987,0.13230185,-0.15541624,0.20712157,-0.16996486,-0.2066896,0.03773094,0.025792303,-0.047295336,0.04159758,0.13389525,-0.26149544,0.19919729,0.020307975,-0.04799382,0.07712297,-0.21788241,-0.125664,1
-0.120997384,0.022717083,-0.1420104,0.004698224,-0.0910914,0.17782089,0.196841,0.20949578,-0.091358334,-0.06979321,-0.18383041,0.14279166,0.031689327,0.18659903,-0.12856823,-0.14755145,-0.030120792,-0.25197673,-0.10597,0.009290282,-0.10437506,0.11695477,-0.00980433,0.18580657,0.2882953,-0.05389531,-0.22236809,0.07029152,-0.037482347,-0.14706987,-0.06737722,-0.15851484,-0.05775353,0.025088606,0.09977954,-0.06365397,0.17368722,-0.26603997,0.008600984,0.063554995,0.013383926,-0.052434362,0.0100293225,-0.12592125,0.07029317,-0.094942614,0.056951202,0.11203403,0.24486886,-0.073437676,-0.03137342,-0.30015656,0.045079008,-0.066944994,0.07889441,-0.099927954,-0.009460873,0.05273967,0.096242994,0.17501405,-0.021040121,-0.038449228,-0.19147295,0.22300439,0.08396169,0.061639477,0.07808432,0.013937125,-0.18126006,0.055617273,0.07957083,-0.102538794,0.10207265,-0.11579228,0.015873702,-0.064479895,0.09673007,0.0023651803,-0.023376184,-0.1522134,0.075088106,-0.05731096,-0.1477075,0.098775074,-0.14217378,0.16739188,-0.1518785,-0.1819337,0.0056911167,0.014257606,-0.014022702,0.04155071,0.10615688,-0.2305141,0.19690204,-0.0137509,-0.047841404,0.027913868,-0.1999953,-0.10330794,0
-0.106086835,0.044858124,-0.117730886,0.018623248,-0.09074856,0.13324097,0.14281198,0.16890779,-0.071116,-0.07027442,-0.15456435,0.111439385,0.030622765,0.15518713,-0.09908999,-0.1239081,-0.0033714501,-0.18075804,-0.077054575,0.00990066,-0.08755165,0.09235151,-0.008107444,0.14556375,0.22408628,-0.054307044,-0.16264719,0.05796236,-0.033192016,-0.11329023,-0.046280578,-0.13387688,-0.032533795,0.008738444,0.06861948,-0.049367137,0.1447084,-0.2007623,0.014317421,0.064778015,-0.0049916157,-0.03150692,0.021707332,-0.095795766,0.028712384,-0.08294273,0.047932275,0.09453043,0.19477504,-0.06794597,-0.0415887,-0.24782473,0.0065107155,-0.045169365,0.065652534,-0.08712426,-0.0057972455,0.04397067,0.071773134,0.1351932,-0.029937884,-0.042287268,-0.16488263,0.16418007,0.06543438,0.029497081,0.071600996,0.018778311,-0.14151585,0.060923986,0.07436615,-0.07415031,0.064404815,-0.09978296,0.013688477,-0.0456255,0.064842716,0.019921964,-0.02940473,-0.14354332,0.045142304,-0.043471847,-0.115269765,0.09123283,-0.107204914,0.14605781,-0.1147697,-0.14566246,0.022401787,0.020914964,-0.029013507,0.031577427,0.094159015,-0.1788405,0.14058617,0.011223606,-0.03278225,0.05043052,-0.14705636,-0.088174075,1
-0.10871751,0.027435742,-0.125517,0.01430203,-0.08980269,0.1476823,0.16890731,0.18647666,-0.069839686,-0.063526765,-0.16534144,0.12386179,0.02492462,0.16664931,-0.11215675,-0.13472702,-0.013574188,-0.21035539,-0.092358805,0.011129197,-0.09393983,0.100809515,-0.01375949,0.15985009,0.24432391,-0.050813515,-0.18490085,0.06335897,-0.03511958,-0.12705693,-0.058129217,-0.14275476,-0.042988043,0.018162414,0.08088661,-0.047851402,0.15430029,-0.23177463,0.010310209,0.060937654,0.0032044568,-0.038103186,0.010091206,-0.10863657,0.050730623,-0.084771484,0.05297744,0.10179272,0.20982766,-0.06838833,-0.037634104,-0.26899132,0.028277364,-0.0544415,0.06915369,-0.091830164,-0.012088985,0.045104865,0.08592063,0.14866425,-0.029560585,-0.041667037,-0.17272905,0.18543,0.07376241,0.047967143,0.074196994,0.015754139,-0.15511003,0.054308902,0.06943519,-0.085285,0.08427447,-0.10841837,0.013941884,-0.052120112,0.07693265,0.0147743635,-0.028017059,-0.14393297,0.057140514,-0.047829654,-0.12542532,0.08968222,-0.1235941,0.15111388,-0.12856618,-0.15274434,0.01461343,0.014812479,-0.026863273,0.03412727,0.09550386,-0.20485397,0.1656528,0.00013722105,-0.03860265,0.041619144,-0.17151815,-0.09030268,1
-0.12530702,0.0488744,-0.1367392,0.02627851,-0.1116824,0.1566689,0.16949433,0.19741726,-0.083146796,-0.083904,-0.18630946,0.13533685,0.03494373,0.1934137,-0.120970875,-0.1501328,-0.007443891,-0.21373302,-0.093571216,0.010529475,-0.106524855,0.10352035,-0.015314592,0.1765246,0.26824564,-0.059599236,-0.19432858,0.06637986,-0.03955987,-0.13668877,-0.05932876,-0.16120392,-0.04154461,0.015594156,0.081073165,-0.049020197,0.17429224,-0.24514994,0.0179159,0.07611568,-0.010034822,-0.032581314,0.024467155,-0.11136599,0.037374076,-0.09959769,0.05897857,0.1123091,0.23053157,-0.078023516,-0.053742304,-0.29907113,0.01750609,-0.056616716,0.07748899,-0.10882395,-0.010408492,0.04945202,0.08956178,0.1559721,-0.0425214,-0.050116245,-0.19582103,0.19513112,0.07886937,0.036906514,0.08690949,0.024567984,-0.17076857,0.06556318,0.0846412,-0.10008257,0.08188841,-0.12518376,0.021009946,-0.053247526,0.07659307,0.023105811,-0.037640736,-0.16961429,0.057036087,-0.051784948,-0.13830012,0.10556622,-0.13278237,0.16811147,-0.14315163,-0.17172101,0.029413838,0.022001984,-0.04393322,0.03486436,0.11389889,-0.22262868,0.17032444,0.008707262,-0.041774973,0.05469819,-0.18049523,-0.10576168,1
-0.15793209,0.05806201,-0.18107443,0.034983005,-0.1446881,0.20431402,0.22934383,0.26666877,-0.096276075,-0.09944778,-0.23695864,0.1642548,0.037014738,0.24603519,-0.16006069,-0.194841,-0.0018436944,-0.27924076,-0.120886974,0.01872964,-0.13448663,0.13607702,-0.025181014,0.21802412,0.33633104,-0.07998156,-0.24618398,0.09043814,-0.060135804,-0.1782948,-0.07974636,-0.2072793,-0.04564241,0.015038343,0.102070786,-0.0647944,0.22434321,-0.31859714,0.022845672,0.10079925,-0.008529999,-0.042695597,0.021853356,-0.14755334,0.052782193,-0.12988767,0.08645053,0.15059605,0.29325306,-0.1060802,-0.0772513,-0.38552374,0.019362008,-0.07335732,0.100493275,-0.13527861,-0.018309848,0.060067892,0.114824265,0.20439315,-0.05628377,-0.07080041,-0.254968,0.2547719,0.10723961,0.05182325,0.11532298,0.025480462,-0.21568057,0.095212184,0.10590842,-0.12122922,0.09950353,-0.16104709,0.019740053,-0.06966809,0.09356071,0.033512462,-0.046057187,-0.22008996,0.061792832,-0.06523669,-0.17626111,0.13797082,-0.17410153,0.22344154,-0.17523369,-0.21432029,0.035652533,0.02484819,-0.05199164,0.04753475,0.14089946,-0.28966656,0.22138382,0.025794534,-0.05417711,0.08155461,-0.23360498,-0.13461846,1
-0.104482844,0.039424688,-0.11373345,0.024273764,-0.09285042,0.12744056,0.14495794,0.16368635,-0.061665773,-0.06891752,-0.14851873,0.10232407,0.02509593,0.15537119,-0.09672927,-0.12056,-0.0021531894,-0.17312913,-0.076281756,0.011814807,-0.08296582,0.08497696,-0.016167594,0.14061989,0.21262284,-0.049097415,-0.14848565,0.05674534,-0.038475417,-0.11003397,-0.052510634,-0.13373029,-0.02509216,0.0076849223,0.06274626,-0.038105067,0.14081319,-0.20097604,0.01626055,0.065426074,-0.008167695,-0.026587503,0.018889252,-0.09534306,0.027510183,-0.078897774,0.05588039,0.09454715,0.18505953,-0.07103349,-0.045820333,-0.24359182,0.005557062,-0.042795207,0.06420285,-0.08399422,-0.009146689,0.033077665,0.07441816,0.12528633,-0.035657108,-0.041186042,-0.15971018,0.15908538,0.068591036,0.029165057,0.074225955,0.019148743,-0.13901304,0.061052464,0.064575925,-0.07910319,0.060882766,-0.1037076,0.011348124,-0.04235911,0.06129577,0.019288223,-0.033719376,-0.1409517,0.039337825,-0.03874933,-0.11186315,0.087406226,-0.10809989,0.14098641,-0.10655566,-0.13549459,0.025209922,0.015249447,-0.0360742,0.024278602,0.08895541,-0.17768943,0.13551226,0.018766824,-0.030315137,0.05708847,-0.15066779,-0.08509131,1
-0.15792373,0.061876707,-0.17475176,0.035672005,-0.13975938,0.18916625,0.20926245,0.24998958,-0.09740848,-0.097942464,-0.22590996,0.15892752,0.040498197,0.23110628,-0.14518458,-0.18383273,-0.0012417553,-0.26306456,-0.1164827,0.020376148,-0.1316464,0.1267769,-0.019783672,0.20840555,0.32251474,-0.07865295,-0.22596312,0.08278003,-0.05974563,-0.16695896,-0.07555495,-0.20322336,-0.042460144,0.0134417135,0.09423044,-0.061762728,0.21489874,-0.30331647,0.020282567,0.0972147,-0.009762624,-0.037685275,0.030100383,-0.14324889,0.045402046,-0.1291216,0.08231886,0.13960437,0.28231958,-0.10842107,-0.07056795,-0.36411682,0.011304612,-0.07183373,0.0954398,-0.13118413,-0.021574695,0.056446068,0.1083699,0.19178396,-0.054767728,-0.067012906,-0.24787988,0.24122582,0.10218464,0.04636355,0.11010333,0.022236224,-0.20664111,0.092157915,0.099294424,-0.12105884,0.09299876,-0.15757647,0.021902706,-0.06484062,0.09283968,0.03254748,-0.049059134,-0.2161538,0.055309273,-0.055473454,-0.16456677,0.13394615,-0.1625645,0.21092854,-0.16879839,-0.20350918,0.03914758,0.02976455,-0.0566838,0.04508598,0.14060996,-0.27109125,0.20747425,0.029445421,-0.047021642,0.08330675,-0.22069423,-0.13046427,1
-0.1804361,0.06867455,-0.1968037,0.046078872,-0.15961313,0.22151968,0.24470687,0.29017183,-0.10857314,-0.11693643,-0.25872478,0.1851376,0.041738342,0.26758713,-0.17036276,-0.20602524,-0.0034503345,-0.3050056,-0.13359728,0.016710838,-0.15010409,0.14602213,-0.018404106,0.23999724,0.37323487,-0.08601235,-0.26113766,0.09548694,-0.07166376,-0.18911906,-0.08854745,-0.2244586,-0.04613804,0.013901343,0.10903861,-0.0693629,0.24513659,-0.3443073,0.017655313,0.11191072,-0.006785517,-0.0430551,0.028708756,-0.16590089,0.04779611,-0.13905405,0.09710042,0.16185898,0.32848305,-0.1297502,-0.077798955,-0.42008638,0.01016557,-0.08043217,0.11155921,-0.15403667,-0.022141755,0.059639215,0.13054928,0.21833158,-0.05534067,-0.079205625,-0.28174764,0.28015003,0.12029107,0.05489897,0.12641546,0.028738637,-0.24273436,0.108199716,0.11397612,-0.1468595,0.102062896,-0.17993388,0.02169043,-0.07250176,0.10989608,0.039273746,-0.056278624,-0.2490608,0.06621723,-0.06738063,-0.19239786,0.16328838,-0.18019721,0.24257335,-0.19948441,-0.24037711,0.04117994,0.032241855,-0.057871975,0.052558113,0.16031787,-0.31450576,0.23864493,0.02687769,-0.058245026,0.09240426,-0.2564654,-0.1476107,1
-0.0974898,0.034482993,-0.10195229,0.023920197,-0.08378263,0.118007824,0.13107465,0.15130684,-0.06113698,-0.05971539,-0.14091755,0.0971169,0.026482647,0.13879083,-0.08826025,-0.10881965,-0.0016011536,-0.16331093,-0.068922825,0.00991296,-0.081814,0.079683766,-0.011814108,0.12644367,0.19578595,-0.046233278,-0.1391907,0.051741593,-0.033044998,-0.10115439,-0.046964657,-0.1188422,-0.027248973,0.008429815,0.062512435,-0.03832409,0.13087511,-0.18606415,0.00933801,0.059114832,-0.008120477,-0.022745114,0.018796617,-0.085904896,0.027773228,-0.07665238,0.05042646,0.08606248,0.17901535,-0.068738475,-0.041863337,-0.2273343,0.003996582,-0.04555104,0.062140774,-0.08100481,-0.009732844,0.03411933,0.06396262,0.11958039,-0.029207861,-0.037288357,-0.14819936,0.14813025,0.06368304,0.030292097,0.06670688,0.017205182,-0.12726352,0.05500831,0.060410976,-0.07971764,0.055054806,-0.09347346,0.010912789,-0.037073757,0.056378573,0.019448593,-0.03200551,-0.13278146,0.04005498,-0.03656018,-0.10190509,0.0839875,-0.09857216,0.12953646,-0.10511126,-0.13034491,0.021373032,0.016302234,-0.035022415,0.025824944,0.08646004,-0.16527416,0.12874281,0.017327243,-0.02858882,0.04877822,-0.13621368,-0.07920554,1
-0.113141745,0.020581398,-0.13849248,0.0054941103,-0.091766156,0.17880511,0.20108281,0.20642373,-0.08594811,-0.06668431,-0.18748638,0.14063886,0.028243966,0.1828068,-0.13012756,-0.14708842,-0.028595882,-0.24368869,-0.10885319,0.008526721,-0.10409083,0.12304674,-0.009732099,0.18423037,0.28413743,-0.046348114,-0.22404663,0.07518359,-0.034240525,-0.14526558,-0.06365209,-0.15404193,-0.057045877,0.029093679,0.09982589,-0.055452686,0.17262843,-0.26702902,0.0067979824,0.05704866,0.009179365,-0.04950346,0.007953161,-0.12489409,0.07213542,-0.08657357,0.055744145,0.10789025,0.23884034,-0.068464205,-0.029861357,-0.29661953,0.04575928,-0.064365745,0.079932176,-0.106142215,-0.009443883,0.055382017,0.09640915,0.17497927,-0.021022975,-0.033361375,-0.18597668,0.2179889,0.080231175,0.064748436,0.07345675,0.015491064,-0.17706487,0.045149643,0.07773648,-0.096963614,0.10286328,-0.11151883,0.013471785,-0.061628837,0.09559425,0.006308537,-0.018440433,-0.14790377,0.07722925,-0.058429718,-0.14103456,0.096392445,-0.13873988,0.16478865,-0.15238206,-0.17872725,0.0017457923,0.0102379685,-0.01885246,0.040124796,0.10257956,-0.23090559,0.1967948,-0.013667759,-0.047057465,0.02542091,-0.2009069,-0.104108356,1
-0.13101831,0.03850248,-0.14676489,0.020337312,-0.11119702,0.17278019,0.19054261,0.21769373,-0.08636503,-0.08071422,-0.194605,0.14840762,0.03167484,0.19926377,-0.1321372,-0.1602697,-0.016376387,-0.24574259,-0.10915331,0.016835287,-0.11583902,0.11747742,-0.013221361,0.18827501,0.28659853,-0.06497156,-0.21586058,0.07335142,-0.04434553,-0.14993171,-0.065837756,-0.16849372,-0.049648896,0.016916197,0.09156552,-0.05992792,0.18265422,-0.27413324,0.01946659,0.07583615,0.0010192071,-0.039385054,0.016573178,-0.13084458,0.056988955,-0.10352594,0.061443686,0.11955415,0.24787703,-0.08222157,-0.05056513,-0.321201,0.029719537,-0.062340736,0.080481716,-0.10866628,-0.012019432,0.054027677,0.096977405,0.1746744,-0.03722558,-0.05230642,-0.2058826,0.21649325,0.08766393,0.052528977,0.08906864,0.019517455,-0.18482567,0.06758553,0.08317868,-0.09997602,0.09413306,-0.12940225,0.018030584,-0.05863651,0.09218192,0.018229576,-0.032748826,-0.17640755,0.066886075,-0.05454734,-0.14860074,0.1111045,-0.1448574,0.18359819,-0.15226528,-0.1809062,0.020266794,0.022299549,-0.036262624,0.041934375,0.11778488,-0.2380615,0.19403362,0.0045417687,-0.044944894,0.05526992,-0.20044085,-0.11145635,1
-0.13388103,0.049567904,-0.14482628,0.037996955,-0.12916058,0.16449633,0.18436266,0.2187525,-0.07806891,-0.09010323,-0.1967364,0.14010336,0.03317013,0.20574829,-0.12417128,-0.15829593,0.0011261695,-0.2235437,-0.10098857,0.016128689,-0.115355164,0.117021754,-0.02510816,0.18796276,0.27572736,-0.06516394,-0.20019287,0.07469269,-0.051310644,-0.14479674,-0.061328534,-0.1760177,-0.035407178,0.013443736,0.07788055,-0.050458252,0.18397123,-0.26182228,0.024336874,0.08868113,-0.011578497,-0.03240361,0.028628586,-0.12430357,0.035700053,-0.10769121,0.071514234,0.12377122,0.24191889,-0.08813177,-0.066389896,-0.32751998,0.008341235,-0.058249857,0.08658933,-0.11369863,-0.01666155,0.0486849,0.096953414,0.164308,-0.047124803,-0.05522383,-0.21453981,0.2053148,0.08880284,0.038843695,0.09515362,0.022646323,-0.17753105,0.08252098,0.08709605,-0.09913167,0.07830516,-0.13718334,0.02012395,-0.05730751,0.08004586,0.037099984,-0.03942832,-0.18769354,0.04970972,-0.047318175,-0.14230782,0.11931823,-0.1398804,0.18570453,-0.14619648,-0.17799963,0.024823518,0.025494464,-0.053106144,0.03862776,0.11582823,-0.23373969,0.18017198,0.026950935,-0.04609544,0.07992795,-0.19479401,-0.11346028,1
-0.15442277,0.058340635,-0.16937584,0.040674716,-0.13573453,0.18639791,0.20864433,0.24358535,-0.09207102,-0.0986553,-0.22108565,0.15990514,0.034191083,0.22750783,-0.14735016,-0.17967655,0.001903907,-0.25519562,-0.114849955,0.016123258,-0.12571464,0.12681991,-0.021428797,0.20617369,0.3144193,-0.0754467,-0.22284412,0.08596358,-0.061698332,-0.1593498,-0.07283381,-0.19443448,-0.03596784,0.009886459,0.09221759,-0.058264714,0.20755056,-0.29441512,0.019338489,0.092094705,-0.0059875534,-0.037339766,0.022963583,-0.13965687,0.04497944,-0.12119336,0.08085745,0.13842341,0.27573425,-0.10690403,-0.06672259,-0.3583055,0.010774225,-0.06721386,0.092435375,-0.12832059,-0.021035634,0.051961776,0.10822279,0.18783633,-0.05122795,-0.06677518,-0.23800622,0.23574802,0.103797756,0.047201693,0.10843244,0.026516583,-0.20454472,0.092500046,0.098238096,-0.11714452,0.08785277,-0.1538018,0.02006479,-0.061127126,0.08982322,0.03409996,-0.04669421,-0.20982945,0.055291746,-0.055509653,-0.16578166,0.13611881,-0.15653883,0.2069961,-0.16501656,-0.20180422,0.03491435,0.026595244,-0.055557463,0.045192726,0.13349985,-0.2689094,0.20462257,0.027465675,-0.049152,0.08125906,-0.21763964,-0.122633934,1
-0.16758372,0.061454542,-0.18610384,0.042703453,-0.14890154,0.20664147,0.22792278,0.26976413,-0.10428049,-0.1069461,-0.24339533,0.1750742,0.03809851,0.25130758,-0.1663372,-0.19563444,-5.094955e-06,-0.29044357,-0.1275123,0.017832542,-0.13936791,0.13659312,-0.019906305,0.23200105,0.35421568,-0.07916033,-0.2464504,0.08592931,-0.063737944,-0.18035674,-0.08010116,-0.21342348,-0.043582194,0.015287635,0.09847724,-0.06936632,0.23517863,-0.32703736,0.023955848,0.10339632,-0.004361861,-0.04246593,0.02621972,-0.15729532,0.050502203,-0.13836183,0.09272178,0.15426262,0.30477512,-0.11897567,-0.071349055,-0.39500347,0.01734634,-0.07517347,0.10414987,-0.13863765,-0.024770532,0.056448642,0.123404704,0.20807226,-0.053934615,-0.07305426,-0.26482287,0.26134035,0.10575576,0.0508788,0.11667041,0.027177371,-0.2267301,0.104355134,0.10942675,-0.12842311,0.10374887,-0.17009497,0.024794182,-0.0681719,0.10589213,0.03613395,-0.049432386,-0.23073268,0.06281139,-0.063010596,-0.17531504,0.15355831,-0.17250577,0.22775939,-0.18533815,-0.2239151,0.039265998,0.032363843,-0.054324873,0.049359154,0.15066843,-0.29351866,0.230211,0.026941093,-0.05428844,0.086739756,-0.24392699,-0.13792361,1
